{"internalDocumentIDStore":{"internalIdToId":["8c8d4b8ffe2594083ac9abc41f5875af","f38dc5789c9ee19817cadf351833b427","3932dad66667e8b70e5f281118d27691","e38ba403d3cc3be7bbf0f3990d7a0476","17e89197302329aba02a2959364d703c","1e970237b0909eb1a40c697cd8dae68f"]},"index":{"indexes":{"id":{"type":"Radix","node":{"w":"","s":"","c":{"1":{"w":"1","s":"1","c":{"7":{"w":"17e89197302329aba02a2959364d703c","s":"7e89197302329aba02a2959364d703c","c":{},"d":[],"e":true},"e":{"w":"1e970237b0909eb1a40c697cd8dae68f","s":"e970237b0909eb1a40c697cd8dae68f","c":{},"d":[6],"e":true}},"d":[],"e":false},"3":{"w":"3932dad66667e8b70e5f281118d27691","s":"3932dad66667e8b70e5f281118d27691","c":{},"d":[3],"e":true},"8":{"w":"8c8d4b8ffe2594083ac9abc41f5875af","s":"8c8d4b8ffe2594083ac9abc41f5875af","c":{},"d":[],"e":true},"f":{"w":"f38dc5789c9ee19817cadf351833b427","s":"f38dc5789c9ee19817cadf351833b427","c":{},"d":[],"e":true},"e":{"w":"e38ba403d3cc3be7bbf0f3990d7a0476","s":"e38ba403d3cc3be7bbf0f3990d7a0476","c":{},"d":[],"e":true}},"d":[],"e":false},"isArray":false},"title":{"type":"Radix","node":{"w":"","s":"","c":{"b":{"w":"bias","s":"bias","c":{},"d":[6],"e":true},"w":{"w":"welcome","s":"welcome","c":{},"d":[3],"e":true}},"d":[],"e":false},"isArray":false},"path":{"type":"Radix","node":{"w":"","s":"","c":{"b":{"w":"bias","s":"bias","c":{},"d":[6],"e":true},"m":{"w":"md","s":"md","c":{},"d":[3,6],"e":true},"w":{"w":"welcome","s":"welcome","c":{},"d":[3],"e":true}},"d":[],"e":false},"isArray":false},"content":{"type":"Radix","node":{"w":"","s":"","c":{"0":{"w":"0","s":"0","c":{"0":{"w":"00","s":"0","c":{},"d":[3],"e":true},"5":{"w":"05","s":"5","c":{},"d":[3],"e":true},"6":{"w":"06","s":"6","c":{},"d":[3,6],"e":true},"7":{"w":"07","s":"7","c":{},"d":[3,6],"e":true},"8":{"w":"08","s":"8","c":{},"d":[3,6],"e":true},"9":{"w":"09","s":"9","c":{},"d":[],"e":true}},"d":[],"e":false},"1":{"w":"1","s":"1","c":{"0":{"w":"10","s":"0","c":{},"d":[6],"e":true},"1":{"w":"11","s":"1","c":{},"d":[],"e":true},"8":{"w":"18","s":"8","c":{},"d":[6],"e":true}},"d":[],"e":false},"2":{"w":"2","s":"2","c":{"0":{"w":"2025","s":"025","c":{"0":{"w":"20250608002325","s":"0608002325","c":{},"d":[3],"e":true}},"d":[3,6],"e":true},"2":{"w":"22","s":"2","c":{},"d":[3],"e":true},"3":{"w":"23","s":"3","c":{},"d":[3,6],"e":true},"6":{"w":"26","s":"6","c":{},"d":[6],"e":true},"7":{"w":"27","s":"7","c":{},"d":[3],"e":true}},"d":[],"e":false},"3":{"w":"3","s":"3","c":{"2":{"w":"32","s":"2","c":{},"d":[],"e":true},"3":{"w":"33","s":"3","c":{},"d":[],"e":true},"9":{"w":"39","s":"9","c":{},"d":[6],"e":true}},"d":[],"e":false},"4":{"w":"47","s":"47","c":{},"d":[],"e":true},"5":{"w":"5","s":"5","c":{"4":{"w":"54","s":"4","c":{},"d":[],"e":true},"8":{"w":"58","s":"8","c":{},"d":[],"e":true}},"d":[],"e":false},"n":{"w":"note","s":"note","c":{},"d":[3,6],"e":true},"t":{"w":"t","s":"t","c":{"i":{"w":"ti","s":"i","c":{"t":{"w":"title","s":"tle","c":{},"d":[3,6],"e":true},"m":{"w":"times","s":"mes","c":{},"d":[6],"e":true}},"d":[],"e":false},"h":{"w":"th","s":"h","c":{"e":{"w":"the","s":"e","c":{},"d":[6],"e":true},"i":{"w":"things","s":"ings","c":{},"d":[6],"e":true},"a":{"w":"that","s":"at","c":{},"d":[6],"e":true},"o":{"w":"those","s":"ose","c":{},"d":[6],"e":true}},"d":[],"e":false},"o":{"w":"to","s":"o","c":{},"d":[6],"e":true}},"d":[],"e":false},"b":{"w":"b","s":"b","c":{"i":{"w":"bias","s":"ias","c":{"e":{"w":"biased","s":"ed","c":{},"d":[6],"e":true}},"d":[6],"e":true},"l":{"w":"block","s":"lock","c":{},"d":[3,6],"e":true},"e":{"w":"because","s":"ecause","c":{},"d":[6],"e":true},"u":{"w":"but","s":"ut","c":{},"d":[6],"e":true}},"d":[],"e":false},"m":{"w":"m","s":"m","c":{"e":{"w":"metadata","s":"etadata","c":{},"d":[3,6],"e":true},"o":{"w":"mod","s":"od","c":{"i":{"w":"modified","s":"ified","c":{},"d":[3,6],"e":true},"e":{"w":"model","s":"el","c":{},"d":[6],"e":true}},"d":[],"e":false},"a":{"w":"ma","s":"a","c":{"n":{"w":"many","s":"ny","c":{},"d":[6],"e":true},"i":{"w":"main","s":"in","c":{},"d":[6],"e":true}},"d":[],"e":false}},"d":[],"e":false},"c":{"w":"c","s":"c","c":{"r":{"w":"created","s":"reated","c":{},"d":[3,6],"e":true},"o":{"w":"content","s":"ontent","c":{},"d":[3,6],"e":true},"a":{"w":"can","s":"an","c":{},"d":[6],"e":true}},"d":[],"e":false},"w":{"w":"w","s":"w","c":{"h":{"w":"when","s":"hen","c":{},"d":[6],"e":true},"o":{"w":"world","s":"orld","c":{},"d":[6],"e":true},"r":{"w":"wrong","s":"rong","c":{},"d":[6],"e":true},"e":{"w":"welcome","s":"elcome","c":{},"d":[3],"e":true}},"d":[],"e":false},"y":{"w":"you","s":"you","c":{"r":{"w":"your","s":"r","c":{},"d":[6],"e":true}},"d":[6],"e":true},"h":{"w":"h","s":"h","c":{"a":{"w":"have","s":"ave","c":{},"d":[6],"e":true},"o":{"w":"however","s":"owever","c":{},"d":[6],"e":true}},"d":[],"e":false},"a":{"w":"a","s":"a","c":{"r":{"w":"are","s":"re","c":{},"d":[6],"e":true}},"d":[6],"e":true},"s":{"w":"s","s":"s","c":{"e":{"w":"see","s":"ee","c":{},"d":[6],"e":true},"a":{"w":"say","s":"ay","c":{},"d":[6],"e":true},"h":{"w":"should","s":"hould","c":{},"d":[6],"e":true}},"d":[],"e":false},"i":{"w":"i","s":"i","c":{"n":{"w":"in","s":"n","c":{},"d":[6],"e":true},"d":{"w":"ideas","s":"deas","c":{},"d":[6],"e":true},"s":{"w":"is","s":"s","c":{},"d":[6],"e":true},"m":{"w":"image","s":"mage","c":{},"d":[3],"e":true}},"d":[6],"e":true},"e":{"w":"e","s":"e","c":{"v":{"w":"even","s":"ven","c":{},"d":[6],"e":true},"x":{"w":"experiments","s":"xperiments","c":{},"d":[6],"e":true}},"d":[],"e":false},"d":{"w":"do","s":"do","c":{},"d":[6],"e":true},"r":{"w":"r","s":"r","c":{"i":{"w":"right","s":"ight","c":{},"d":[6],"e":true},"e":{"w":"results","s":"esults","c":{},"d":[6],"e":true}},"d":[],"e":false},"g":{"w":"get","s":"get","c":{},"d":[6],"e":true},"p":{"w":"p","s":"p","c":{"a":{"w":"pasted","s":"asted","c":{},"d":[3],"e":true},"n":{"w":"png","s":"ng","c":{},"d":[3],"e":true},"r":{"w":"problem","s":"roblem","c":{},"d":[6],"e":true}},"d":[],"e":false},"f":{"w":"find","s":"find","c":{},"d":[6],"e":true}},"d":[],"e":false},"isArray":false},"embeddingModel":{"type":"Radix","node":{"w":"","s":"","c":{"t":{"w":"text-embedding-004","s":"text-embedding-004","c":{},"d":[3,6],"e":true}},"d":[],"e":false},"isArray":false},"created_at":{"type":"AVL","node":{"root":{"k":1749346460061,"v":[3],"l":{"k":0,"v":[],"l":null,"r":null,"h":0},"r":{"k":1749349133819,"v":[6],"l":null,"r":null,"h":0},"h":1}},"isArray":false},"ctime":{"type":"AVL","node":{"root":{"k":1749305106451,"v":[3],"l":{"k":0,"v":[],"l":null,"r":null,"h":0},"r":{"k":1749309999714,"v":[6],"l":null,"r":null,"h":0},"h":1}},"isArray":false},"mtime":{"type":"AVL","node":{"root":{"k":1749313407980,"v":[1],"l":{"k":0,"v":[],"l":null,"r":null,"h":0},"r":{"k":1749349119143,"v":[6],"l":null,"r":null,"h":0},"h":1}},"isArray":false},"tags":{"type":"Radix","node":{"w":"","s":"","c":{},"d":[],"e":false},"isArray":true},"extension":{"type":"Radix","node":{"w":"","s":"","c":{"m":{"w":"md","s":"md","c":{},"d":[3,6],"e":true}},"d":[],"e":false},"isArray":false}},"vectorIndexes":{"embedding":{"size":768,"vectors":{"3932dad66667e8b70e5f281118d27691":[0.9999896417298573,[0.023735299706459045,0.042593568563461304,-0.05082085728645325,0.002771164756268263,0.005240011028945446,0.04370727390050888,0.03330236300826073,0.02383619174361229,0.024583375081419945,0.007778480648994446,0.004253078252077103,0.06370684504508972,0.05470277741551399,0.0033652540296316147,-0.008419517427682877,-0.03602950647473335,0.033661555498838425,0.0431787446141243,-0.04661586508154869,-0.03014027141034603,-0.012257234193384647,-0.03060610592365265,-0.007306346204131842,-0.017210042104125023,0.0008063700515776873,0.005850675515830517,0.006938453763723373,-0.0014644662151113153,0.028103182092308998,-0.040998879820108414,0.01137098390609026,0.06116867437958717,0.02637188695371151,-0.023685991764068604,0.02466548979282379,0.0031745994929224253,-0.020321115851402283,0.04173978045582771,0.008772490546107292,-0.050536658614873886,-0.06798636168241501,-0.027817675843834877,-0.026400579139590263,0.01104932650923729,-0.020565565675497055,-0.0019223178969696164,0.002075456315651536,-0.0005102705908939242,-0.023410987108945847,0.02704746462404728,0.04566224664449692,0.026768289506435394,-0.026615748181939125,0.015696503221988678,-0.03553815186023712,-0.03602314740419388,-0.0078032128512859344,-0.08838703483343124,0.05620548501610756,0.001876643393188715,-0.04017713665962219,-0.03301987797021866,0.010741401463747025,-0.02888791263103485,0.0025722936261445284,-0.0269946176558733,-0.0009024442406371236,-0.006469792686402798,-0.047506414353847504,0.027244819328188896,-0.018145659938454628,0.005279590375721455,-0.05842439830303192,0.00575656071305275,0.02290765754878521,-0.02440018020570278,0.009118140675127506,0.004527588840574026,0.03816206753253937,0.0477919802069664,-0.01772158034145832,-0.018463701009750366,0.015945618972182274,0.029273469001054764,0.04372737929224968,0.026050925254821777,0.021348852664232254,-0.0004136036732234061,-0.07350223511457443,-0.04017464444041252,0.05439446121454239,0.040426209568977356,-0.06365606933832169,0.010197180323302746,0.07148686051368713,-0.022915353998541832,-0.06358276307582855,-0.13845261931419373,0.04049958288669586,0.07463563233613968,-0.014947940595448017,0.001347774756141007,-0.004391083959490061,-0.024354996159672737,0.033628884702920914,0.0002951488131657243,-0.03133488819003105,-0.03988040238618851,-0.06538385897874832,0.012878126464784145,0.000502132112160325,-0.035293180495500565,-0.018269279971718788,0.009317664429545403,-0.02517642453312874,-0.030344801023602486,-0.003549241693690419,0.05243787541985512,-0.05134355276823044,-0.03179731220006943,0.04286029562354088,0.040745776146650314,-0.009975265711545944,0.04786952584981918,0.020779212936758995,0.010575712658464909,0.030803101137280464,-0.01577652245759964,-0.0017643668688833714,-0.0031960494816303253,0.03211555629968643,-0.06729915738105774,0.0045234826393425465,0.043320342898368835,0.0022312321234494448,0.00022418555454351008,0.011722163297235966,0.05174423009157181,0.024931248277425766,-0.011638995260000229,0.013936195522546768,-0.0156779233366251,-0.08332791179418564,0.05602099373936653,0.01729418896138668,-0.09133262932300568,0.00895007885992527,0.018800875172019005,-0.03696754574775696,0.02157440036535263,-0.011196709237992764,0.0033461155835539103,0.005677293054759502,-0.06377020478248596,-0.020202795043587685,-0.02444200962781906,0.0640866756439209,-0.09070784598588943,0.022084368392825127,0.016197582706809044,-0.002926845569163561,-0.03189340978860855,0.05533669516444206,0.018511131405830383,-0.010141178965568542,-0.04800907522439957,-0.03621042147278786,-0.007365232799202204,-0.01343742199242115,-0.022882554680109024,-0.050140053033828735,-0.05505489557981491,-0.0135199511423707,-0.012437347322702408,-0.0416836254298687,0.006977112498134375,-0.031111624091863632,-0.004704151768237352,-0.0702362209558487,0.004780744202435017,0.09889131039381027,0.010668483562767506,0.0004595475329551846,-0.03844664990901947,-0.01896078884601593,0.016060009598731995,0.007454755250364542,0.04667999595403671,0.027661843225359917,0.03421184793114662,0.02609972469508648,-0.043134819716215134,-0.024834906682372093,0.01312978658825159,-0.044149164110422134,0.039337288588285446,0.03628075495362282,0.0030613658018410206,-0.013188841752707958,-0.02026979997754097,0.028255891054868698,0.034573838114738464,-0.05515548586845398,-0.013940578326582909,-0.00896019022911787,0.03513549640774727,-0.047857362776994705,-0.06344107538461685,0.018853237852454185,-0.011208359152078629,0.007211592514067888,-0.014779849909245968,0.04925454407930374,-0.04161679744720459,0.0483458936214447,-0.005466938018798828,0.0578681044280529,0.006120497826486826,0.10153548419475555,-0.07105433195829391,0.02970171719789505,0.007151338737457991,0.03367232158780098,0.025609010830521584,0.02132350020110607,-0.024807143956422806,-0.0529196634888649,0.030966751277446747,-0.014986750669777393,-0.058927204459905624,-0.012699772603809834,0.03170693665742874,-0.010037301108241081,-0.004556655418127775,0.024119466543197632,0.02936548739671707,0.0020175615791231394,-0.0644240751862526,-0.036717094480991364,0.04527600482106209,-0.008350771851837635,-0.042167630046606064,0.028166618198156357,-0.01886714994907379,0.005426950287073851,-0.011853877454996109,0.0025688630994409323,-0.005283406004309654,0.003396998392418027,-0.06251468509435654,0.02967366948723793,-0.04175230860710144,-0.05133960768580437,-0.01583242602646351,-0.04624975845217705,-0.025290008634328842,0.0310053788125515,-0.030104806646704674,-0.01461689081043005,0.020982423797249794,0.02514902502298355,-0.012125067412853241,-0.0034595096949487925,-0.0761781558394432,-0.07546921819448471,-0.07544920593500137,-0.04116460308432579,-0.010102414526045322,0.000564107671380043,-0.09903844445943832,0.03109791688621044,-0.034021392464637756,-0.06169560179114342,0.023672085255384445,-0.09264330565929413,0.0229171309620142,-0.029773905873298645,0.03346240520477295,-0.07776862382888794,-0.06273874640464783,0.04452815651893616,0.00143918686080724,0.01574072428047657,-0.011058050207793713,-0.013953132554888725,-0.022533858194947243,-0.05337268114089966,-0.005070792976766825,0.023471180349588394,-0.025399446487426758,0.026632405817508698,0.0618889294564724,-0.033559128642082214,-0.032686471939086914,0.04989783465862274,-0.01307323295623064,0.03776511549949646,0.07515530288219452,0.050853852182626724,0.031215762719511986,0.0021580958273261786,0.03321114182472229,0.00593469338491559,0.03939549997448921,-0.009599831886589527,0.01031834539026022,-0.07107291370630264,-0.057063743472099304,-0.03397391363978386,-0.004528452642261982,0.04469769075512886,0.05437658727169037,-0.0053677731193602085,-0.019102858379483223,-0.04455249011516571,-0.04110836610198021,-0.14414891600608826,-0.027866361662745476,-0.02027551271021366,0.02859484776854515,0.036900103092193604,0.01197670865803957,-0.06892336159944534,-0.006323197390884161,0.041517503559589386,-0.013931840658187866,0.007046871818602085,0.02488762140274048,0.04319557175040245,0.016200266778469086,0.03385953977704048,-0.020123222842812538,-0.006388731300830841,-0.04317514970898628,-0.021200811490416527,0.07119710743427277,-0.05718725919723511,0.017763204872608185,0.05755896866321564,0.06262371689081192,0.04271147400140762,0.012294074520468712,0.016169490292668343,0.029604336246848106,-0.027441756799817085,-0.043771203607320786,0.0007218901300802827,-0.00791114941239357,-0.0005578838172368705,-0.016447214409708977,0.06452897936105728,0.052405692636966705,-0.0058334944769740105,-0.0032537796068936586,-0.007465217728167772,-0.0021354190539568663,0.04813268035650253,0.02258564904332161,0.027053799480199814,-0.0460340715944767,0.004106404259800911,0.031227145344018936,0.0023230083752423525,0.05521581321954727,-0.007023268844932318,0.006480972748249769,0.0476163886487484,0.06595567613840103,-0.017558353021740913,0.002869984833523631,-0.027727613225579262,0.036632128059864044,0.008396551944315434,-0.02287612296640873,0.040335699915885925,-0.046476248651742935,-0.017310278490185738,0.03240598365664482,0.03188227489590645,-0.06559304893016815,-0.00914398767054081,-0.007848492823541164,-0.058421261608600616,0.03207080066204071,0.014370739459991455,0.04551396891474724,-0.061916373670101166,0.02515721134841442,-0.00966140627861023,0.006570485886186361,-0.05066689848899841,0.0024217141326516867,0.0028607952408492565,0.031320720911026,0.009662281721830368,0.02629026770591736,0.007286291103810072,0.030200548470020294,0.00009592891728971153,0.005255740601569414,-0.05474155396223068,-0.01215017307549715,0.049209389835596085,-0.0289072934538126,-0.0006451931549236178,-0.037161462008953094,0.05165852606296539,0.034104712307453156,0.00566107826307416,0.014505882747471333,0.0331764742732048,-0.0482737198472023,-0.011748050339519978,0.03747280687093735,-0.04311539605259895,-0.017698287963867188,0.001299598952755332,-0.019081592559814453,0.01656993106007576,0.06257084012031555,-0.00161627191118896,0.020769601687788963,0.024782350286841393,0.051790978759527206,-0.057858437299728394,-0.09905800223350525,-0.004860582295805216,0.002784265670925379,-0.01421473640948534,-0.0238480307161808,0.00974456686526537,0.045438963919878006,-0.023986775428056717,-0.04212413355708122,-0.028849612921476364,0.026032546535134315,-0.002570386743173003,-0.015443915501236916,-0.016087248921394348,0.04142339900135994,-0.00041880205390043557,0.04688673093914986,0.04210780933499336,-0.01761341094970703,-0.02001291513442993,0.04491373151540756,0.0023284470662474632,0.0031470302492380142,-0.004783198703080416,-0.04483514651656151,-0.0024979093577712774,-0.0099105229601264,-0.030987057834863663,-0.02755803056061268,-0.05712917819619179,0.038192782551050186,0.033538561314344406,0.029766367748379707,0.016318542882800102,-0.006042794324457645,-0.07826320081949234,-0.046348996460437775,0.07952295243740082,-0.03002050146460533,0.007972422055900097,-0.041571542620658875,-0.0584053210914135,0.041957419365644455,-0.023752614855766296,-0.012757613323628902,0.07260037213563919,0.002379601588472724,0.053575579077005386,-0.0050988830626010895,-0.003093197476118803,0.02383313700556755,0.03561241924762726,0.026893924921751022,0.024756981059908867,0.024453580379486084,-0.0257255956530571,0.03448617830872536,-0.02906029112637043,0.013705132529139519,0.042581960558891296,-0.0022571361623704433,-0.027903199195861816,0.015686269849538803,0.005889649037271738,-0.007452615536749363,0.022713009268045425,0.036932721734046936,-0.022915681824088097,-0.022068262100219727,0.028510911390185356,0.020828714594244957,0.05848145857453346,-0.028390364721417427,-0.002969259163364768,0.02751089818775654,0.055937204509973526,-0.035582225769758224,0.007145191542804241,-0.020901652052998543,-0.03992843255400658,-0.009461788460612297,-0.015439590439200401,-0.04027998074889183,0.05791787803173065,0.04806888476014137,0.03826550394296646,0.008809709921479225,0.031007595360279083,0.02818366140127182,-0.05562422052025795,-0.01153641752898693,-0.08190462738275528,0.03865756466984749,-0.010885516181588173,0.037020981311798096,-0.014313825406134129,-0.04931492358446121,0.010248862206935883,-0.033867403864860535,-0.0027359495870769024,-0.009858721867203712,0.0043771592900156975,-0.004547125194221735,0.03914741426706314,-0.00009510604286333546,-0.01674460433423519,0.0896938219666481,0.05370156094431877,-0.005619884934276342,0.04517792537808418,0.06672202795743942,0.032423894852399826,0.00823619682341814,0.05369539186358452,-0.0133379977196455,-0.019241753965616226,-0.00931553728878498,0.015884224325418472,0.03408174589276314,0.015494028106331825,0.027354266494512558,0.012741684913635254,-0.004868245683610439,-0.002871888689696789,0.0743374153971672,-0.0236688069999218,-0.026935340836644173,-0.024881795048713684,0.023451728746294975,-0.0025953222066164017,-0.04983050748705864,0.014659678563475609,0.030731413513422012,-0.03465983644127846,-0.0058960202150046825,0.05356008931994438,-0.039876438677310944,-0.014642942696809769,0.024269992485642433,-0.010698845610022545,-0.01813906989991665,-0.003285950981080532,0.07009617239236832,0.028680631890892982,0.01394167635589838,0.01015883032232523,0.004394332878291607,0.036892399191856384,-0.03120257332921028,0.04000834375619888,-0.013395978137850761,-0.0771598070859909,-0.023069212213158607,0.05350014194846153,0.003890705993399024,0.03359820321202278,0.0032166303135454655,0.0705089345574379,0.02650953270494938,-0.023955969139933586,0.0006547253578901291,0.05977931618690491,-0.06747547537088394,0.01516528520733118,0.012207950465381145,-0.011800975538790226,0.03910912200808525,-0.008745713159441948,-0.03668961673974991,0.056092940270900726,-0.03146253898739815,-0.03774731606245041,-0.012589244171977043,-0.0028135469183325768,-0.025709040462970734,0.01876688562333584,-0.023564361035823822,0.03208239749073982,0.011152292601764202,-0.01140355784446001,-0.05135711655020714,-0.05287376791238785,-0.08714240789413452,0.021102948114275932,0.04661919176578522,-0.002331559080630541,0.022223059087991714,-0.025560544803738594,-0.06446298956871033,-0.05235322564840317,0.03181231766939163,-0.05990802124142647,-0.027517806738615036,0.015752503648400307,0.04750029370188713,-0.025448260828852654,0.05152711272239685,0.014206672087311745,-0.03902728110551834,-0.03338116407394409,-0.004342126660048962,-0.019233671948313713,0.006043395027518272,0.019085459411144257,-0.04367779940366745,-0.039748989045619965,0.013443061150610447,0.02788303792476654,-0.05422676354646683,0.0005075885565020144,-0.005384309682995081,0.004306385293602943,0.02013738453388214,-0.012428872287273407,-0.08197883516550064,0.026290321722626686,0.04087897017598152,0.08723822981119156,-0.0023681733291596174,-0.07817745953798294,-0.03518150746822357,0.002376783872023225,0.03060055337846279,0.012120275758206844,0.023302530869841576,-0.034820184111595154,0.06697017699480057,-0.01879284717142582,0.005793228279799223,-0.024962009862065315,0.0030833298806101084,-0.03749885410070419,-0.03192387521266937,-0.0019819799344986677,-0.016318542882800102,-0.04809202626347542,0.006950686685740948,0.00863494724035263,-0.005687583237886429,-0.036727748811244965,-0.031319841742515564,-0.06342597305774689,-0.044077225029468536,0.01797156222164631,-0.00281060510315001,-0.008850588463246822,-0.018710101023316383,0.012856312096118927,0.03872253745794296,0.007678450085222721,-0.03197610750794411,0.03874465450644493,-0.00968486350029707,-0.016998058184981346,0.020003309473395348,-0.01865280047059059,-0.0033602684270590544,0.03944152966141701,-0.042841002345085144,-0.00472022732719779,0.01756170019507408,0.0022999767679721117,-0.03590971976518631,0.0028617670759558678,-0.04077109321951866,-0.04611648619174957,-0.040444567799568176,-0.05066722631454468,0.020310450345277786,-0.002554400358349085,0.05194028466939926,-0.0441923514008522,0.020295577123761177,-0.025530904531478882,0.0030585310887545347,-0.001211442518979311,-0.030197393149137497,-0.014888778328895569,-0.005886394996196032,0.04088538512587547,0.009095498360693455,0.09865888208150864,0.032346051186323166,-0.02115151472389698,0.02992771752178669,-0.06787827610969543,0.0387013703584671,0.050213973969221115,0.009805531240999699,0.02904149331152439,0.016389809548854828,0.02123032696545124,0.03331398218870163,0.022150101140141487,0.03991103544831276,-0.005291211884468794,0.003808223642408848,0.062417007982730865,0.0521293543279171,0.0321781300008297,-0.004619210958480835,-0.050397440791130066,0.0020989254117012024,-0.017474796622991562,0.05248090252280235,0.004885822534561157,0.03132499381899834,-0.033706121146678925,0.034812990576028824,-0.0008667103829793632,-0.05905323103070259,-0.013408553786575794,-0.03730804845690727,0.033408984541893005,0.022950101643800735,0.023393992334604263,-0.0034658126533031464,-0.027724741026759148,-0.025512482970952988,0.02628471329808235,0.04345401003956795,-0.04034619778394699,-0.011406988836824894,0.017077231779694557,-0.0366847887635231,-0.05437237024307251,0.004660396836698055,-0.0002151745866285637,0.005784282460808754,0.016035016626119614,0.0004897419712506235,0.0008335839956998825,-0.01692976988852024,0.0015036589466035366,-0.0029197323601692915,-0.007355107460170984,0.08753184229135513,-0.01733991876244545,-0.020139802247285843,-0.08304353803396225,0.0016350372461602092,0.021797405555844307,-0.03176949918270111]],"1e970237b0909eb1a40c697cd8dae68f":[0.9999823415317576,[0.04380064085125923,0.01935831643640995,-0.06435445696115494,0.005446013528853655,-0.07912815362215042,0.044720057398080826,0.03655840829014778,0.05981254577636719,-0.06748434156179428,-0.021804368123412132,-0.004600047133862972,0.054237689822912216,0.05917154625058174,-0.062073029577732086,0.017230546101927757,-0.039386872202157974,0.05908999592065811,0.06099395826458931,-0.039819493889808655,-0.03133935108780861,0.026618441566824913,0.055864620953798294,-0.04841817542910576,0.013167600147426128,-0.042283281683921814,-0.011894063092768192,0.029576703906059265,-0.03496851027011871,0.02189304679632187,0.022943805903196335,0.01716635562479496,0.006992211099714041,0.03431081771850586,0.009648695588111877,0.017717674374580383,0.024496110156178474,-0.02968882955610752,-0.011327064596116543,0.00654283631592989,-0.020092563703656197,-0.09512700885534286,0.03713556379079819,-0.03154496103525162,0.02512708678841591,-0.045904964208602905,0.011548331007361412,-0.021737249568104744,-0.005624781828373671,-0.031931813806295395,0.028630508109927177,0.016413850709795952,0.010645435191690922,-0.004484375938773155,0.007356701884418726,-0.026599472388625145,-0.06733459234237671,-0.03874502331018448,-0.03649590536952019,0.05061794072389603,-0.02391243912279606,-0.038797568529844284,-0.03957295045256615,-0.06678649038076401,-0.021171290427446365,0.007511770818382502,0.0017002548556774855,-0.044221919029951096,-0.0381227470934391,-0.04275483638048172,0.06241372227668762,-0.03182920813560486,-0.014832834713160992,-0.07738163322210312,-0.005952613893896341,0.0056824455969035625,-0.022758612409234047,0.012159153819084167,-0.03544240444898605,-0.0032715664710849524,0.06476804614067078,0.0010774177499115467,-0.02887326292693615,0.08981379866600037,0.029095111414790154,0.06391512602567673,0.00021297878993209451,0.007704198360443115,-0.030265774577856064,-0.0794864296913147,-0.03312535956501961,-0.019626477733254433,0.028722302988171577,-0.05746886506676674,-0.038639914244413376,0.0947752445936203,-0.02153199352324009,-0.01918584480881691,-0.07491506636142731,0.07469445466995239,0.0396028570830822,0.042171891778707504,0.036220330744981766,-0.010580021888017654,0.0016136938938871026,0.0471431240439415,0.0640600398182869,0.033022332936525345,-0.04646304249763489,-0.01877286285161972,0.033179763704538345,-0.042570047080516815,0.005281948018819094,0.02117830701172352,-0.01241384819149971,-0.016119951382279396,-0.02947608195245266,0.010304520837962627,0.049583014100790024,-0.0643099844455719,0.05172446370124817,0.013142291456460953,0.0372675359249115,-0.0799664631485939,0.0756823942065239,0.05128873884677887,0.006501379422843456,-0.01138126477599144,0.02474181167781353,-0.017316117882728577,0.011447529308497906,-0.013674349524080753,-0.0835944265127182,-0.00032507660216651857,0.060222819447517395,0.01608949713408947,0.015595280565321445,0.021567685529589653,-0.008186664432287216,0.06000450998544693,-0.008050879463553429,-0.03509661182761192,-0.03417673334479332,-0.0737345963716507,0.059426307678222656,0.045223213732242584,-0.03718916326761246,0.004852358251810074,0.04972119629383087,-0.011906151659786701,0.05775677040219307,-0.08557797968387604,-0.03305809199810028,0.05731939896941185,0.02233126200735569,-0.057226091623306274,-0.03582604229450226,0.06066271662712097,-0.0491071417927742,0.005451694130897522,0.05389510095119476,0.05167680233716965,-0.027759503573179245,0.03295288607478142,0.020576953887939453,0.037337351590394974,-0.013325786218047142,-0.006284461356699467,-0.029104063287377357,0.005287686828523874,-0.022260384634137154,-0.04530426114797592,0.02554878033697605,-0.048231713473796844,-0.022287670522928238,0.02307981066405773,0.02556047961115837,0.050411757081747055,-0.06747683137655258,-0.04657658562064171,-0.02663423866033554,0.03481602296233177,0.07187282294034958,0.017896441742777824,-0.07105018943548203,-0.015962252393364906,-0.0077656470239162445,0.011774987913668156,0.002231585793197155,0.051674582064151764,0.0479152575135231,-0.050503265112638474,-0.011409052647650242,0.06438756734132767,0.009754418395459652,-0.018522538244724274,-0.006621736567467451,0.038829952478408813,-0.005683417897671461,-0.04265662655234337,-0.04451693966984749,0.003493322990834713,-0.012316483072936535,-0.008400575257837772,-0.03077753819525242,0.01767628826200962,-0.008681152947247028,-0.007437810767441988,-0.014718163758516312,0.04268428683280945,-0.0019182645482942462,-0.04020197317004204,-0.005193699616938829,0.00024190943804569542,-0.05999862030148506,0.047713324427604675,-0.009133411571383476,0.028810882940888405,-0.028404058888554573,0.10004228353500366,0.017268367111682892,-0.02084045298397541,-0.02023078128695488,-0.020786389708518982,0.050959568470716476,0.00691336952149868,-0.02179122157394886,-0.043645426630973816,-0.03165276348590851,-0.006456378847360611,-0.044463690370321274,-0.005115197040140629,0.03350210562348366,-0.02304665371775627,0.012599646113812923,0.0073920562863349915,-0.00512134050950408,0.0037830155342817307,-0.052960947155952454,-0.008666971698403358,-0.031660836189985275,-0.01664840057492256,-0.007874598726630211,-0.030421724542975426,-0.00621165381744504,0.027645234018564224,0.001890342915430665,-0.011814608238637447,0.03726722300052643,-0.01863313466310501,-0.06896555423736572,-0.00194969039876014,-0.03815080597996712,-0.01578388176858425,-0.008056946098804474,-0.02838759869337082,-0.02447621524333954,0.008206650614738464,0.008351795375347137,-0.036983996629714966,-0.012547973543405533,0.08076762408018112,-0.031174562871456146,-0.0019358661957085133,-0.09858663380146027,-0.03691178187727928,-0.06566290557384491,-0.03161138296127319,-0.06347233802080154,-0.0011294442228972912,-0.0041539426892995834,0.01211115624755621,-0.05504870414733887,-0.06692259013652802,-0.012301207520067692,-0.04426797851920128,0.016118120402097702,-0.028723223134875298,-0.020420122891664505,-0.009679858572781086,-0.0036172536201775074,-0.03528151661157608,-0.007167755626142025,-0.037512149661779404,0.008628691546618938,0.025279542431235313,-0.07670412212610245,-0.04969183728098869,-0.03654342517256737,0.01002747006714344,-0.001642986317165196,-0.0017719391034916043,0.037681084126234055,-0.0010845513315871358,-0.08776089549064636,0.027897272258996964,0.009617325849831104,0.011614575050771236,0.06976603716611862,0.016910677775740623,0.009293041191995144,0.01620318368077278,0.025510888546705246,0.0067839352414011955,0.0035696658305823803,0.0176039170473814,0.033593323081731796,-0.025958191603422165,0.0016601671231910586,-0.000748548423871398,0.012892356142401695,0.028385214507579803,0.004426546860486269,-0.08250369876623154,0.01262818742543459,-0.046231936663389206,-0.0011655709240585566,-0.09263043850660324,-0.020935259759426117,-0.030179454013705254,-0.013661687262356281,0.04870929941534996,-0.009138248860836029,-0.04079939424991608,-0.013456976041197777,0.04861384257674217,-0.05708359181880951,-0.004499690607190132,0.057174649089574814,-0.01398239191621542,-0.021817462518811226,0.05966333672404289,-0.028964722529053688,-0.012167492881417274,-0.03589820861816406,-0.049825578927993774,0.04689089208841324,-0.0021156789734959602,-0.03661136329174042,0.05944417417049408,0.06106856092810631,-0.027429651468992233,-0.004534009378403425,0.04879587143659592,0.03726440668106079,0.039886608719825745,-0.04717649519443512,0.001616035820916295,-0.043937817215919495,-0.04156094044446945,-0.021364683285355568,0.0637730285525322,0.03128547593951225,0.02301103062927723,-0.034256625920534134,0.002992277732118964,-0.024380382150411606,0.04371165111660957,0.01342475600540638,0.026171451434493065,-0.011908629909157753,-0.02255898341536522,0.06355083733797073,0.0235845148563385,0.07575991749763489,-0.014451115392148495,-0.00035978309460915625,0.06885220110416412,0.04485848546028137,-0.00678814435377717,-0.054459746927022934,-0.008915992453694344,0.013609376735985279,0.025875573977828026,0.0334671288728714,0.009363865479826927,-0.02682531625032425,-0.013711710460484028,0.022636402398347855,0.01168628130108118,-0.031204937025904655,0.009128487668931484,-0.03878414258360863,0.015448877587914467,0.04834388568997383,-0.00614852923899889,0.010549405589699745,-0.04364777356386185,0.003871409222483635,-0.005827208049595356,-0.013016482815146446,-0.03274109959602356,0.07810048758983612,-0.0305167343467474,0.004666836466640234,-0.021464187651872635,0.04281970486044884,-0.02211786061525345,0.028270430862903595,0.000056092401791829616,0.008291688747704029,-0.023470565676689148,-0.05311459302902222,0.06085503473877907,0.021447451785206795,0.02615482173860073,-0.003483424661681056,0.06649083644151688,0.006659460719674826,0.012262009084224701,0.0037057329900562763,-0.013349009677767754,-0.02152823656797409,-0.028863605111837387,0.009612671099603176,-0.0013844314962625504,-0.007501374930143356,0.021406758576631546,-0.0080140745267272,0.017521968111395836,0.05679025873541832,-0.02392612025141716,-0.016987301409244537,0.05518736690282822,0.007001871708780527,-0.056348055601119995,0.008639626204967499,0.006186943035572767,0.0033710412681102753,-0.02771742083132267,0.014241701923310757,0.03897158056497574,0.012264345772564411,-0.030287571251392365,0.041589315980672836,0.023485666140913963,0.04173294082283974,0.014764565043151379,-0.03785141929984093,0.009058072231709957,0.0033526383340358734,-0.004382850136607885,0.020732812583446503,0.09712687879800797,-0.012698547914624214,-0.003264326136559248,-0.03448370844125748,0.02394058369100094,0.01633073203265667,-0.03381160646677017,-0.049657247960567474,-0.005924200173467398,-0.003198411548510194,-0.004215918481349945,-0.07522252202033997,-0.05918189883232117,0.0032797532621771097,0.020985402166843414,0.029559705406427383,0.03247792273759842,-0.024163290858268738,0.005953959655016661,0.030378811061382294,0.04122370854020119,-0.00951157882809639,0.01860552281141281,-0.0062920935451984406,-0.022022012621164322,0.035021886229515076,0.007972401566803455,0.024412937462329865,0.019663192331790924,-0.01684967242181301,0.08011651039123535,-0.0010046892566606402,-0.004995165392756462,-0.006140593905001879,0.026956619694828987,-0.03020033799111843,0.0219626072794199,0.00220872531645,-0.007197350729256868,-0.006446728017181158,-0.0303396824747324,-0.039487335830926895,0.07742509245872498,-0.023638347163796425,-0.04406418278813362,0.009938482195138931,0.023587221279740334,-0.019425803795456886,0.0006041860324330628,-0.02224905975162983,-0.08609899878501892,-0.000248049822403118,-0.004656745120882988,-0.008214334957301617,0.03182876855134964,0.017721669748425484,-0.01620795764029026,0.03277014568448067,0.06761704385280609,-0.01746821589767933,-0.008410372771322727,-0.05021623894572258,-0.03749290108680725,0.0197403933852911,-0.0010885827941820025,-0.036227621138095856,0.0703098252415657,0.038735587149858475,0.0730418711900711,-0.021332597360014915,0.0030032265931367874,-0.02222050353884697,-0.09301460534334183,-0.0059253559447824955,-0.01716672070324421,0.00007326043851207942,-0.051517799496650696,0.014790618792176247,-0.002497849054634571,-0.07120001316070557,0.010710096918046474,0.0268639475107193,-0.00538229662925005,-0.027624521404504776,0.03760566562414169,0.006081832572817802,0.031084222719073296,0.016981378197669983,0.0015373703790828586,0.07819654047489166,-0.021046962589025497,0.006255888380110264,0.015398473478853703,0.036946721374988556,-0.013878753408789635,0.025055089965462685,-0.006708198692649603,0.016795150935649872,0.010146611370146275,-0.018559040501713753,0.04884813725948334,0.047863464802503586,0.041428342461586,-0.025625281035900116,-0.017967261373996735,0.034540820866823196,0.025356227532029152,0.06832081824541092,-0.0246898140758276,-0.04329324886202812,0.007295635994523764,0.011319540441036224,0.06018512323498726,-0.007200869731605053,0.017392847687005997,0.03777088224887848,-0.009327905252575874,-0.04033247381448746,0.02338310517370701,-0.03811894729733467,-0.0064795664511621,0.012431925162672997,-0.03603467345237732,-0.0022061688359826803,-0.029347749426960945,0.018664341419935226,-0.034476716071367264,0.002897250233218074,-0.025347793474793434,-0.049488551914691925,-0.005099018570035696,-0.03135795518755913,0.01359064131975174,-0.01946403644979,-0.011169412173330784,-0.03250902146100998,0.01796332187950611,0.009853741154074669,-0.0038722259923815727,-0.02288462594151497,0.04011670500040054,0.013511993922293186,0.023117851465940475,0.011017979122698307,0.010805272497236729,-0.021145110949873924,0.014163117855787277,-0.03451256453990936,0.0011320278281345963,0.0885896384716034,0.0036604071501642466,-0.06714262068271637,0.061918195337057114,0.013745264150202274,-0.02725563943386078,-0.03393274173140526,0.02538442611694336,0.019171450287103653,0.05212078243494034,-0.006761517841368914,0.02667618729174137,0.038258444517850876,-0.01183953508734703,-0.045369457453489304,-0.0272250734269619,-0.05805946886539459,-0.01600617729127407,0.00023748649982735515,0.05177309364080429,0.022026628255844116,-0.03152864798903465,-0.0637902095913887,-0.08645357191562653,-0.0038072734605520964,-0.07381774485111237,-0.0194354597479105,0.048628322780132294,0.056591931730508804,-0.030710062012076378,0.014519982039928436,0.011539098806679249,0.0019139295909553766,-0.01188982930034399,0.00686384504660964,-0.04628606513142586,0.004470519255846739,0.06302667409181595,-0.01496000774204731,-0.01444834005087614,0.003331395098939538,0.017725588753819466,-0.03692103549838066,0.016495218500494957,-0.027865126729011536,0.019235698506236076,0.014743086881935596,0.0363011471927166,-0.03861141577363014,0.017359044402837753,0.0329640693962574,0.04152801260352135,0.010360713116824627,-0.03838116675615311,0.04129084572196007,0.024007100611925125,0.02868109755218029,0.00035493605537340045,-0.006340571213513613,-0.04730306565761566,0.008354652673006058,0.01105689536780119,0.04556283354759216,-0.0024967535864561796,0.0041089607402682304,-0.027120262384414673,-0.06038135662674904,0.01625535637140274,-0.043485719710588455,0.012051819823682308,-0.031173773109912872,-0.061716437339782715,0.015322447754442692,-0.021380938589572906,0.013885551132261753,-0.057623837143182755,0.010427250526845455,0.02595563791692257,-0.03899582475423813,-0.043874189257621765,-0.05823380872607231,-0.017967063933610916,0.03020446188747883,0.010111702606081963,-0.021149877458810806,0.051152922213077545,0.00498996302485466,-0.04072030633687973,-0.01184422243386507,0.015882069244980812,-0.05193667113780975,0.03901318460702896,0.03556836396455765,0.033333051949739456,0.00768194068223238,-0.011394171044230461,-0.009745883755385876,0.051842331886291504,0.0005019783857278526,-0.01994101144373417,-0.058113280683755875,-0.04351785406470299,0.03086276166141033,-0.004162999801337719,0.037835780531167984,0.0011745227966457605,0.04489145055413246,-0.027975695207715034,-0.014642364345490932,0.002501142444089055,0.02432522550225258,0.021532731130719185,0.03340759128332138,0.0034392864909023046,-0.02091660350561142,0.05518243834376335,0.04861915484070778,-0.02786065824329853,0.096242755651474,-0.058201611042022705,0.012342839501798153,0.10266394168138504,-0.023905986919999123,0.01805161125957966,-0.014837611466646194,0.03968031704425812,-0.019976450130343437,0.00682338560000062,-0.0037325741723179817,-0.010400128550827503,-0.009120704606175423,0.018460778519511223,0.05650288239121437,-0.026434581726789474,0.0027890026103705168,0.002832571743056178,0.02167731150984764,-0.03370849788188934,0.025589225813746452,0.04902653768658638,0.04259341210126877,0.005283343140035868,0.028456656262278557,-0.05304355174303055,0.0011123932199552655,-0.0028122898656874895,-0.01999327540397644,0.0094103142619133,0.00851265899837017,0.004976656287908554,-0.0622381716966629,-0.032698191702365875,-0.03457893803715706,0.015061423182487488,0.03410010412335396,-0.01000734232366085,0.01786150224506855,-0.046024102717638016,-0.035231031477451324,-0.04499637335538864,-0.028146374970674515,-0.05021227151155472,0.024312306195497513,-0.024669261649250984,0.0034180048387497663,0.0018331754254177213,-0.014100720174610615,-0.006797364447265863,0.0672314316034317,0.003389817662537098,0.07799379527568817,0.03767774626612663,0.03529679775238037,-0.05229753628373146,-0.08028464764356613,0.053598854690790176,-0.007603215053677559]]}}},"searchableProperties":["id","title","path","content","embedding","embeddingModel","created_at","ctime","mtime","tags","extension"],"searchablePropertiesWithTypes":{"id":"string","title":"string","path":"string","content":"string","embedding":"vector[768]","embeddingModel":"string","created_at":"number","ctime":"number","mtime":"number","tags":"string[]","extension":"string"},"frequencies":{"id":{"3":{"3932dad66667e8b70e5f281118d27691":1},"6":{"1e970237b0909eb1a40c697cd8dae68f":1}},"title":{"3":{"welcome":1},"6":{"bias":1}},"path":{"3":{"welcome":0.5,"md":0.5},"6":{"bias":0.5,"md":0.5}},"content":{"3":{"22":0.047619047619047616,"23":0.047619047619047616,"27":0.047619047619047616,"2025":0.047619047619047616,"note":0.047619047619047616,"title":0.047619047619047616,"welcome":0.047619047619047616,"metadata":0.047619047619047616,"created":0.047619047619047616,"06":0.047619047619047616,"07":0.047619047619047616,"05":0.047619047619047616,"modified":0.047619047619047616,"08":0.047619047619047616,"00":0.047619047619047616,"block":0.047619047619047616,"content":0.047619047619047616,"pasted":0.047619047619047616,"image":0.047619047619047616,"20250608002325":0.047619047619047616,"png":0.047619047619047616},"6":{"10":0.018518518518518517,"18":0.018518518518518517,"23":0.018518518518518517,"26":0.018518518518518517,"39":0.018518518518518517,"2025":0.018518518518518517,"note":0.018518518518518517,"title":0.018518518518518517,"bias":0.018518518518518517,"metadata":0.018518518518518517,"created":0.018518518518518517,"06":0.018518518518518517,"07":0.018518518518518517,"modified":0.018518518518518517,"08":0.018518518518518517,"block":0.018518518518518517,"content":0.018518518518518517,"when":0.018518518518518517,"you":0.018518518518518517,"have":0.018518518518518517,"a":0.018518518518518517,"the":0.018518518518518517,"things":0.018518518518518517,"see":0.018518518518518517,"in":0.018518518518518517,"world":0.018518518518518517,"are":0.018518518518518517,"wrong":0.018518518518518517,"even":0.018518518518518517,"can":0.018518518518518517,"do":0.018518518518518517,"many":0.018518518518518517,"experiments":0.018518518518518517,"to":0.018518518518518517,"say":0.018518518518518517,"that":0.018518518518518517,"your":0.018518518518518517,"ideas":0.018518518518518517,"right":0.018518518518518517,"because":0.018518518518518517,"get":0.018518518518518517,"those":0.018518518518518517,"results":0.018518518518518517,"times":0.018518518518518517,"but":0.018518518518518517,"model":0.018518518518518517,"is":0.018518518518518517,"biased":0.018518518518518517,"however":0.018518518518518517,"i":0.018518518518518517,"find":0.018518518518518517,"main":0.018518518518518517,"problem":0.018518518518518517,"should":0.018518518518518517}},"embeddingModel":{"3":{"text-embedding-004":1},"6":{"text-embedding-004":1}},"tags":{},"extension":{"3":{"md":1},"6":{"md":1}}},"tokenOccurrences":{"id":{"8c8d4b8ffe2594083ac9abc41f5875af":0,"f38dc5789c9ee19817cadf351833b427":0,"3932dad66667e8b70e5f281118d27691":1,"e38ba403d3cc3be7bbf0f3990d7a0476":0,"17e89197302329aba02a2959364d703c":0,"1e970237b0909eb1a40c697cd8dae68f":1},"title":{"bias":1,"welcome":1},"path":{"bias":1,"md":2,"welcome":1},"content":{"10":1,"11":0,"18":1,"22":1,"23":2,"26":1,"27":1,"32":0,"33":0,"39":1,"47":0,"54":0,"58":0,"2025":2,"note":2,"title":2,"bias":1,"metadata":2,"created":2,"06":2,"07":2,"modified":2,"block":2,"content":2,"when":1,"you":1,"have":1,"a":1,"the":1,"things":1,"see":1,"in":1,"world":1,"are":1,"wrong":1,"even":1,"can":1,"do":1,"many":1,"experiments":1,"to":1,"say":1,"that":1,"your":1,"ideas":1,"right":1,"because":1,"get":1,"those":1,"results":1,"times":1,"but":1,"model":1,"is":1,"biased":1,"08":2,"09":0,"welcome":1,"05":1,"00":1,"pasted":1,"image":1,"20250608002325":1,"png":1,"main":1,"however":1,"i":1,"find":1,"problem":1,"should":1},"embeddingModel":{"text-embedding-004":2},"tags":{},"extension":{"md":2}},"avgFieldLength":{"id":1,"title":1,"path":2,"content":37.5,"embeddingModel":1,"tags":0,"extension":1},"fieldLengths":{"id":{"3":1,"6":1},"title":{"3":1,"6":1},"path":{"3":2,"6":2},"content":{"3":21,"6":54},"embeddingModel":{"3":1,"6":1},"tags":{},"extension":{"3":1,"6":1}}},"docs":{"docs":{"3":{"title":"Welcome","path":"Welcome.md","embeddingModel":"text-embedding-004","ctime":1749305106451,"mtime":1749313407980,"tags":[],"extension":"md","metadata":{"created":"2025/06/07 22:05:06","modified":"2025/06/08 00:23:27"},"id":"3932dad66667e8b70e5f281118d27691","content":"\n\nNOTE TITLE: [[Welcome]]\n\nMETADATA:{\"created\":\"2025/06/07 22:05:06\",\"modified\":\"2025/06/08 00:23:27\"}\n\nNOTE BLOCK CONTENT:\n\n![[Pasted image 20250608002325.png]]","embedding":null,"created_at":1749346460061,"nchars":161},"6":{"title":"Bias","path":"Bias.md","embeddingModel":"text-embedding-004","ctime":1749309999714,"mtime":1749349119143,"tags":[],"extension":"md","metadata":{"created":"2025/06/07 23:26:39","modified":"2025/06/08 10:18:39"},"id":"1e970237b0909eb1a40c697cd8dae68f","content":"\n\nNOTE TITLE: [[Bias]]\n\nMETADATA:{\"created\":\"2025/06/07 23:26:39\",\"modified\":\"2025/06/08 10:18:39\"}\n\nNOTE BLOCK CONTENT:\n\nWhen you have a bias, the things you see in the world are wrong. Even you can do many experiments to say that your ideas are right because you get those results many times, but your model is biased.  \nHowever, I find that the main problem is that you should","embedding":[0.04380064,0.019358316,-0.06435446,0.0054460135,-0.07912815,0.044720057,0.03655841,0.059812546,-0.06748434,-0.021804368,-0.004600047,0.05423769,0.059171546,-0.06207303,0.017230546,-0.039386872,0.059089996,0.06099396,-0.039819494,-0.03133935,0.026618442,0.05586462,-0.048418175,0.0131676,-0.04228328,-0.011894063,0.029576704,-0.03496851,0.021893047,0.022943806,0.017166356,0.006992211,0.034310818,0.009648696,0.017717674,0.02449611,-0.02968883,-0.011327065,0.0065428363,-0.020092564,-0.09512701,0.037135564,-0.03154496,0.025127087,-0.045904964,0.011548331,-0.02173725,-0.005624782,-0.031931814,0.028630508,0.01641385,0.010645435,-0.004484376,0.007356702,-0.026599472,-0.06733459,-0.038745023,-0.036495905,0.05061794,-0.02391244,-0.03879757,-0.03957295,-0.06678649,-0.02117129,0.007511771,0.0017002549,-0.04422192,-0.038122747,-0.042754836,0.062413722,-0.031829208,-0.014832835,-0.07738163,-0.005952614,0.0056824456,-0.022758612,0.012159154,-0.035442404,-0.0032715665,0.064768046,0.0010774177,-0.028873263,0.0898138,0.029095111,0.063915126,0.00021297879,0.0077041984,-0.030265775,-0.07948643,-0.03312536,-0.019626478,0.028722303,-0.057468865,-0.038639914,0.094775245,-0.021531994,-0.019185845,-0.07491507,0.074694455,0.039602857,0.04217189,0.03622033,-0.010580022,0.0016136939,0.047143124,0.06406004,0.033022333,-0.046463042,-0.018772863,0.033179764,-0.042570047,0.005281948,0.021178307,-0.012413848,-0.016119951,-0.029476082,0.010304521,0.049583014,-0.064309984,0.051724464,0.013142291,0.037267536,-0.07996646,0.075682394,0.05128874,0.0065013794,-0.011381265,0.024741812,-0.017316118,0.011447529,-0.0136743495,-0.08359443,-0.0003250766,0.06022282,0.016089497,0.015595281,0.021567686,-0.008186664,0.06000451,-0.008050879,-0.03509661,-0.034176733,-0.0737346,0.059426308,0.045223214,-0.037189163,0.0048523583,0.049721196,-0.011906152,0.05775677,-0.08557798,-0.033058092,0.0573194,0.022331262,-0.05722609,-0.035826042,0.060662717,-0.04910714,0.005451694,0.0538951,0.051676802,-0.027759504,0.032952886,0.020576954,0.03733735,-0.013325786,-0.0062844614,-0.029104063,0.005287687,-0.022260385,-0.04530426,0.02554878,-0.048231713,-0.02228767,0.02307981,0.02556048,0.050411757,-0.06747683,-0.046576586,-0.026634239,0.034816023,0.07187282,0.017896442,-0.07105019,-0.015962252,-0.007765647,0.011774988,0.0022315858,0.051674582,0.047915258,-0.050503265,-0.011409053,0.06438757,0.009754418,-0.018522538,-0.0066217366,0.038829952,-0.005683418,-0.042656627,-0.04451694,0.003493323,-0.012316483,-0.008400575,-0.030777538,0.017676288,-0.008681153,-0.007437811,-0.014718164,0.042684287,-0.0019182645,-0.040201973,-0.0051936996,0.00024190944,-0.05999862,0.047713324,-0.009133412,0.028810883,-0.028404059,0.10004228,0.017268367,-0.020840453,-0.020230781,-0.02078639,0.05095957,0.0069133695,-0.021791222,-0.043645427,-0.031652763,-0.006456379,-0.04446369,-0.005115197,0.033502106,-0.023046654,0.012599646,0.0073920563,-0.0051213405,0.0037830155,-0.052960947,-0.008666972,-0.031660836,-0.0166484,-0.007874599,-0.030421725,-0.006211654,0.027645234,0.0018903429,-0.011814608,0.037267223,-0.018633135,-0.068965554,-0.0019496904,-0.038150806,-0.015783882,-0.008056946,-0.028387599,-0.024476215,0.008206651,0.008351795,-0.036983997,-0.012547974,0.080767624,-0.031174563,-0.0019358662,-0.098586634,-0.036911782,-0.065662906,-0.031611383,-0.06347234,-0.0011294442,-0.0041539427,0.012111156,-0.055048704,-0.06692259,-0.0123012075,-0.04426798,0.01611812,-0.028723223,-0.020420123,-0.009679859,-0.0036172536,-0.035281517,-0.0071677556,-0.03751215,0.008628692,0.025279542,-0.07670412,-0.049691837,-0.036543425,0.01002747,-0.0016429863,-0.0017719391,0.037681084,-0.0010845513,-0.087760895,0.027897272,0.009617326,0.011614575,0.06976604,0.016910678,0.009293041,0.016203184,0.025510889,0.0067839352,0.0035696658,0.017603917,0.033593323,-0.025958192,0.0016601671,-0.0007485484,0.012892356,0.028385215,0.004426547,-0.0825037,0.012628187,-0.046231937,-0.0011655709,-0.09263044,-0.02093526,-0.030179454,-0.013661687,0.0487093,-0.009138249,-0.040799394,-0.013456976,0.048613843,-0.05708359,-0.0044996906,0.05717465,-0.013982392,-0.021817463,0.059663337,-0.028964723,-0.012167493,-0.03589821,-0.04982558,0.046890892,-0.002115679,-0.036611363,0.059444174,0.06106856,-0.027429651,-0.0045340094,0.04879587,0.037264407,0.03988661,-0.047176495,0.0016160358,-0.043937817,-0.04156094,-0.021364683,0.06377303,0.031285476,0.02301103,-0.034256626,0.0029922777,-0.024380382,0.04371165,0.013424756,0.026171451,-0.01190863,-0.022558983,0.06355084,0.023584515,0.07575992,-0.014451115,-0.0003597831,0.0688522,0.044858485,-0.0067881444,-0.054459747,-0.008915992,0.013609377,0.025875574,0.03346713,0.0093638655,-0.026825316,-0.01371171,0.022636402,0.011686281,-0.031204937,0.009128488,-0.038784143,0.015448878,0.048343886,-0.0061485292,0.010549406,-0.043647774,0.0038714092,-0.005827208,-0.013016483,-0.0327411,0.07810049,-0.030516734,0.0046668365,-0.021464188,0.042819705,-0.02211786,0.02827043,0.0000560924,0.008291689,-0.023470566,-0.053114593,0.060855035,0.021447452,0.026154822,-0.0034834247,0.06649084,0.0066594607,0.012262009,0.003705733,-0.01334901,-0.021528237,-0.028863605,0.009612671,-0.0013844315,-0.007501375,0.021406759,-0.0080140745,0.017521968,0.05679026,-0.02392612,-0.016987301,0.055187367,0.0070018717,-0.056348056,0.008639626,0.006186943,0.0033710413,-0.02771742,0.014241702,0.03897158,0.012264346,-0.030287571,0.041589316,0.023485666,0.04173294,0.014764565,-0.03785142,0.009058072,0.0033526383,-0.00438285,0.020732813,0.09712688,-0.012698548,-0.0032643261,-0.03448371,0.023940584,0.016330732,-0.033811606,-0.049657248,-0.0059242,-0.0031984115,-0.0042159185,-0.07522252,-0.0591819,0.0032797533,0.020985402,0.029559705,0.032477923,-0.02416329,0.0059539597,0.030378811,0.04122371,-0.009511579,0.018605523,-0.0062920935,-0.022022013,0.035021886,0.007972402,0.024412937,0.019663192,-0.016849672,0.08011651,-0.0010046893,-0.0049951654,-0.006140594,0.02695662,-0.030200338,0.021962607,0.0022087253,-0.0071973507,-0.006446728,-0.030339682,-0.039487336,0.07742509,-0.023638347,-0.044064183,0.009938482,0.023587221,-0.019425804,0.00060418603,-0.02224906,-0.086099,-0.00024804982,-0.004656745,-0.008214335,0.03182877,0.01772167,-0.016207958,0.032770146,0.067617044,-0.017468216,-0.008410373,-0.05021624,-0.0374929,0.019740393,-0.0010885828,-0.03622762,0.070309825,0.038735587,0.07304187,-0.021332597,0.0030032266,-0.022220504,-0.093014605,-0.005925356,-0.01716672,0.00007326044,-0.0515178,0.014790619,-0.002497849,-0.07120001,0.010710097,0.026863948,-0.0053822966,-0.027624521,0.037605666,0.0060818326,0.031084223,0.016981378,0.0015373704,0.07819654,-0.021046963,0.0062558884,0.0153984735,0.03694672,-0.013878753,0.02505509,-0.0067081987,0.016795151,0.010146611,-0.01855904,0.048848137,0.047863465,0.041428342,-0.025625281,-0.017967261,0.03454082,0.025356228,0.06832082,-0.024689814,-0.04329325,0.007295636,0.01131954,0.060185123,-0.0072008697,0.017392848,0.037770882,-0.009327905,-0.040332474,0.023383105,-0.038118947,-0.0064795665,0.012431925,-0.036034673,-0.0022061688,-0.02934775,0.018664341,-0.034476716,0.0028972502,-0.025347793,-0.049488552,-0.0050990186,-0.031357955,0.013590641,-0.019464036,-0.011169412,-0.03250902,0.017963322,0.009853741,-0.003872226,-0.022884626,0.040116705,0.013511994,0.023117851,0.011017979,0.0108052725,-0.021145111,0.014163118,-0.034512565,0.0011320278,0.08858964,0.0036604072,-0.06714262,0.061918195,0.013745264,-0.02725564,-0.03393274,0.025384426,0.01917145,0.052120782,-0.006761518,0.026676187,0.038258445,-0.011839535,-0.045369457,-0.027225073,-0.05805947,-0.016006177,0.0002374865,0.051773094,0.022026628,-0.031528648,-0.06379021,-0.08645357,-0.0038072735,-0.073817745,-0.01943546,0.048628323,0.05659193,-0.030710062,0.014519982,0.011539099,0.0019139296,-0.011889829,0.006863845,-0.046286065,0.0044705193,0.063026674,-0.014960008,-0.01444834,0.003331395,0.017725589,-0.036921035,0.016495219,-0.027865127,0.019235699,0.014743087,0.036301147,-0.038611416,0.017359044,0.03296407,0.041528013,0.010360713,-0.038381167,0.041290846,0.0240071,0.028681098,0.00035493606,-0.006340571,-0.047303066,0.008354653,0.011056895,0.045562834,-0.0024967536,0.0041089607,-0.027120262,-0.060381357,0.016255356,-0.04348572,0.01205182,-0.031173773,-0.061716437,0.015322448,-0.021380939,0.013885551,-0.057623837,0.0104272505,0.025955638,-0.038995825,-0.04387419,-0.05823381,-0.017967064,0.030204462,0.010111703,-0.021149877,0.051152922,0.004989963,-0.040720306,-0.011844222,0.01588207,-0.05193667,0.039013185,0.035568364,0.033333052,0.0076819407,-0.011394171,-0.009745884,0.051842332,0.0005019784,-0.019941011,-0.05811328,-0.043517854,0.030862762,-0.004163,0.03783578,0.0011745228,0.04489145,-0.027975695,-0.014642364,0.0025011424,0.024325226,0.021532731,0.03340759,0.0034392865,-0.020916604,0.05518244,0.048619155,-0.027860658,0.096242756,-0.05820161,0.0123428395,0.10266394,-0.023905987,0.018051611,-0.0148376115,0.039680317,-0.01997645,0.0068233856,-0.0037325742,-0.010400129,-0.009120705,0.018460779,0.056502882,-0.026434582,0.0027890026,0.0028325717,0.021677312,-0.033708498,0.025589226,0.049026538,0.042593412,0.005283343,0.028456656,-0.05304355,0.0011123932,-0.0028122899,-0.019993275,0.009410314,0.008512659,0.0049766563,-0.06223817,-0.03269819,-0.034578938,0.015061423,0.034100104,-0.010007342,0.017861502,-0.046024103,-0.03523103,-0.044996373,-0.028146375,-0.05021227,0.024312306,-0.024669262,0.0034180048,0.0018331754,-0.01410072,-0.0067973644,0.06723143,0.0033898177,0.077993795,0.037677746,0.035296798,-0.052297536,-0.08028465,0.053598855,-0.007603215],"created_at":1749349133819,"nchars":379}},"count":2},"sorting":{"language":"english","sortableProperties":["id","title","path","content","embeddingModel","created_at","ctime","mtime","extension"],"sortablePropertiesWithTypes":{"id":"string","title":"string","path":"string","content":"string","embeddingModel":"string","created_at":"number","ctime":"number","mtime":"number","extension":"string"},"sorts":{"id":{"docs":{"3":2,"5":0,"6":1},"orderedDocs":[[5,"17e89197302329aba02a2959364d703c"],[6,"1e970237b0909eb1a40c697cd8dae68f"],[3,"3932dad66667e8b70e5f281118d27691"]],"type":"string"},"title":{"docs":{"1":0,"3":2,"6":1},"orderedDocs":[[1,"Bias"],[6,"Bias"],[3,"Welcome"]],"type":"string"},"path":{"docs":{"1":0,"3":2,"6":1},"orderedDocs":[[1,"Bias.md"],[6,"Bias.md"],[3,"Welcome.md"]],"type":"string"},"content":{"docs":{"1":0,"3":2,"6":1},"orderedDocs":[[1,"\n\nNOTE TITLE: [[Bias]]\n\nMETADATA:{\"created\":\"2025/06/07 23:26:39\",\"modified\":\"2025/06/07 23:47:11\"}\n\nNOTE BLOCK CONTENT:\n\nWhen you have a bias, the things you see in the world are wrong. Even you can do many experiments to say that your ideas are right because you get those results many times, but your model is biased."],[6,"\n\nNOTE TITLE: [[Bias]]\n\nMETADATA:{\"created\":\"2025/06/07 23:26:39\",\"modified\":\"2025/06/08 10:18:39\"}\n\nNOTE BLOCK CONTENT:\n\nWhen you have a bias, the things you see in the world are wrong. Even you can do many experiments to say that your ideas are right because you get those results many times, but your model is biased.  \nHowever, I find that the main problem is that you should"],[3,"\n\nNOTE TITLE: [[Welcome]]\n\nMETADATA:{\"created\":\"2025/06/07 22:05:06\",\"modified\":\"2025/06/08 00:23:27\"}\n\nNOTE BLOCK CONTENT:\n\n![[Pasted image 20250608002325.png]]"]],"type":"string"},"embeddingModel":{"docs":{"1":0,"3":1,"6":2},"orderedDocs":[[1,"text-embedding-004"],[3,"text-embedding-004"],[6,"text-embedding-004"]],"type":"string"},"created_at":{"docs":{"1":0,"3":1,"6":2},"orderedDocs":[[1,1749311650329],[3,1749346460061],[6,1749349133819]],"type":"number"},"ctime":{"docs":{"3":0,"6":1},"orderedDocs":[[3,1749305106451],[6,1749309999714]],"type":"number"},"mtime":{"docs":{"1":0,"3":1,"6":2},"orderedDocs":[[1,1749311231994],[3,1749313407980],[6,1749349119143]],"type":"number"},"extension":{"docs":{"1":0,"3":1,"6":2},"orderedDocs":[[1,"md"],[3,"md"],[6,"md"]],"type":"string"}},"enabled":true,"isSorted":true},"language":"english","schema":{"id":"string","title":"string","path":"string","content":"string","embedding":"vector[768]","embeddingModel":"string","created_at":"number","ctime":"number","mtime":"number","tags":"string[]","extension":"string"}}