{"internalDocumentIDStore":{"internalIdToId":["51fdbc43ccea465f906e8343daf337ea"]},"index":{"indexes":{"id":{"type":"Radix","node":{"w":"","s":"","c":{"5":{"w":"51fdbc43ccea465f906e8343daf337ea","s":"51fdbc43ccea465f906e8343daf337ea","c":{},"d":[1],"e":true}},"d":[],"e":false},"isArray":false},"title":{"type":"Radix","node":{"w":"","s":"","c":{"b":{"w":"bias","s":"bias","c":{},"d":[1],"e":true}},"d":[],"e":false},"isArray":false},"path":{"type":"Radix","node":{"w":"","s":"","c":{"b":{"w":"bias","s":"bias","c":{},"d":[1],"e":true},"m":{"w":"md","s":"md","c":{},"d":[1],"e":true}},"d":[],"e":false},"isArray":false},"content":{"type":"Radix","node":{"w":"","s":"","c":{"0":{"w":"0","s":"0","c":{"2":{"w":"02","s":"2","c":{},"d":[1],"e":true},"6":{"w":"06","s":"6","c":{},"d":[1],"e":true},"7":{"w":"07","s":"7","c":{},"d":[1],"e":true},"8":{"w":"08","s":"8","c":{},"d":[1],"e":true}},"d":[],"e":false},"1":{"w":"12","s":"12","c":{},"d":[1],"e":true},"2":{"w":"2","s":"2","c":{"0":{"w":"2025","s":"025","c":{},"d":[1],"e":true},"3":{"w":"23","s":"3","c":{},"d":[1],"e":true},"6":{"w":"26","s":"6","c":{},"d":[1],"e":true}},"d":[],"e":false},"3":{"w":"39","s":"39","c":{},"d":[1],"e":true},"5":{"w":"53","s":"53","c":{},"d":[1],"e":true},"n":{"w":"note","s":"note","c":{},"d":[1],"e":true},"t":{"w":"t","s":"t","c":{"i":{"w":"ti","s":"i","c":{"t":{"w":"title","s":"tle","c":{},"d":[1],"e":true},"m":{"w":"times","s":"mes","c":{},"d":[1],"e":true}},"d":[],"e":false},"h":{"w":"th","s":"h","c":{"e":{"w":"the","s":"e","c":{},"d":[1],"e":true},"i":{"w":"things","s":"ings","c":{},"d":[1],"e":true},"a":{"w":"that","s":"at","c":{},"d":[1],"e":true},"o":{"w":"those","s":"ose","c":{},"d":[1],"e":true}},"d":[],"e":false},"o":{"w":"to","s":"o","c":{},"d":[1],"e":true}},"d":[],"e":false},"b":{"w":"b","s":"b","c":{"i":{"w":"bias","s":"ias","c":{"e":{"w":"biased","s":"ed","c":{},"d":[1],"e":true}},"d":[1],"e":true},"l":{"w":"block","s":"lock","c":{},"d":[1],"e":true},"e":{"w":"because","s":"ecause","c":{},"d":[1],"e":true},"u":{"w":"but","s":"ut","c":{},"d":[1],"e":true}},"d":[],"e":false},"m":{"w":"m","s":"m","c":{"e":{"w":"metadata","s":"etadata","c":{},"d":[1],"e":true},"o":{"w":"mod","s":"od","c":{"i":{"w":"modified","s":"ified","c":{},"d":[1],"e":true},"e":{"w":"model","s":"el","c":{},"d":[1],"e":true}},"d":[],"e":false},"a":{"w":"many","s":"any","c":{},"d":[1],"e":true}},"d":[],"e":false},"c":{"w":"c","s":"c","c":{"r":{"w":"created","s":"reated","c":{},"d":[1],"e":true},"o":{"w":"content","s":"ontent","c":{},"d":[1],"e":true},"a":{"w":"can","s":"an","c":{},"d":[1],"e":true}},"d":[],"e":false},"w":{"w":"w","s":"w","c":{"h":{"w":"when","s":"hen","c":{},"d":[1],"e":true},"o":{"w":"world","s":"orld","c":{},"d":[1],"e":true},"r":{"w":"wrong","s":"rong","c":{},"d":[1],"e":true}},"d":[],"e":false},"y":{"w":"you","s":"you","c":{"r":{"w":"your","s":"r","c":{},"d":[1],"e":true}},"d":[1],"e":true},"h":{"w":"have","s":"have","c":{},"d":[1],"e":true},"a":{"w":"a","s":"a","c":{"r":{"w":"are","s":"re","c":{},"d":[1],"e":true}},"d":[1],"e":true},"s":{"w":"s","s":"s","c":{"e":{"w":"see","s":"ee","c":{},"d":[1],"e":true},"a":{"w":"say","s":"ay","c":{},"d":[1],"e":true}},"d":[],"e":false},"i":{"w":"i","s":"i","c":{"n":{"w":"in","s":"n","c":{},"d":[1],"e":true},"d":{"w":"ideas","s":"deas","c":{},"d":[1],"e":true},"s":{"w":"is","s":"s","c":{},"d":[1],"e":true}},"d":[],"e":false},"e":{"w":"e","s":"e","c":{"v":{"w":"even","s":"ven","c":{},"d":[1],"e":true},"x":{"w":"experiments","s":"xperiments","c":{},"d":[1],"e":true}},"d":[],"e":false},"d":{"w":"do","s":"do","c":{},"d":[1],"e":true},"r":{"w":"r","s":"r","c":{"i":{"w":"right","s":"ight","c":{},"d":[1],"e":true},"e":{"w":"results","s":"esults","c":{},"d":[1],"e":true}},"d":[],"e":false},"g":{"w":"get","s":"get","c":{},"d":[1],"e":true}},"d":[],"e":false},"isArray":false},"embeddingModel":{"type":"Radix","node":{"w":"","s":"","c":{"t":{"w":"text-embedding-004","s":"text-embedding-004","c":{},"d":[1],"e":true}},"d":[],"e":false},"isArray":false},"created_at":{"type":"AVL","node":{"root":{"k":0,"v":[],"l":null,"r":{"k":1749367916552,"v":[1],"l":null,"r":null,"h":0},"h":1}},"isArray":false},"ctime":{"type":"AVL","node":{"root":{"k":0,"v":[],"l":null,"r":{"k":1749309999714,"v":[1],"l":null,"r":null,"h":0},"h":1}},"isArray":false},"mtime":{"type":"AVL","node":{"root":{"k":0,"v":[],"l":null,"r":{"k":1749358382887,"v":[1],"l":null,"r":null,"h":0},"h":1}},"isArray":false},"tags":{"type":"Radix","node":{"w":"","s":"","c":{},"d":[],"e":false},"isArray":true},"extension":{"type":"Radix","node":{"w":"","s":"","c":{"m":{"w":"md","s":"md","c":{},"d":[1],"e":true}},"d":[],"e":false},"isArray":false}},"vectorIndexes":{"embedding":{"size":768,"vectors":{"51fdbc43ccea465f906e8343daf337ea":[0.9999850440300935,[0.05131273344159126,0.021018244326114655,-0.06990113854408264,0.008601657114923,-0.07753941416740417,0.04345127195119858,0.03115454874932766,0.04376766085624695,-0.06745364516973495,-0.0330880805850029,-0.014819451607763767,0.04953516647219658,0.05543360859155655,-0.0607738271355629,0.02150273323059082,-0.04777338728308678,0.04731501266360283,0.058810267597436905,-0.05041328817605972,-0.043583501130342484,0.023362500593066216,0.03179921954870224,-0.04053366556763649,0.004465534817427397,-0.04498734697699547,-0.01904135011136532,0.045973025262355804,-0.033565253019332886,0.026171069592237473,0.03546923026442528,0.028279626742005348,-0.00003994015423813835,0.033657681196928024,0.003698509419336915,0.031093046069145203,0.010842511430382729,-0.028519708663225174,-0.014889845624566078,-0.00572245242074132,-0.01385494228452444,-0.10397185385227203,0.01843181625008583,-0.031152892857789993,0.010858094319701195,-0.04513637349009514,0.002817565808072686,-0.0054960851557552814,-0.018755469471216202,-0.01659584976732731,0.03833675757050514,0.003526517655700445,0.021999262273311615,-0.019627027213573456,0.013427977450191975,-0.019782645627856255,-0.06715930253267288,-0.03478677570819855,-0.0403154231607914,0.047215528786182404,-0.00966104306280613,-0.03485054522752762,-0.03578543663024902,-0.05198362469673157,-0.015001769177615643,0.008354478515684605,-0.004271462094038725,-0.04561180621385574,-0.0360102541744709,-0.05071176588535309,0.08018510788679123,-0.040392715483903885,-0.017831843346357346,-0.07354233413934708,-0.007036726921796799,0.013524934649467468,-0.0327555350959301,0.012987110763788223,-0.03684311732649803,-0.0009436836116947234,0.05741122364997864,-0.003271101973950863,-0.018243342638015747,0.09650672227144241,0.025972170755267143,0.053587425500154495,0.0026090817991644144,0.0029251885134726763,-0.02248227596282959,-0.09152345359325409,-0.03157762810587883,-0.02320864051580429,0.019300000742077827,-0.06931950151920319,-0.03729349002242088,0.08305539190769196,-0.027084188535809517,-0.026154253631830215,-0.07749362289905548,0.09282635897397995,0.0423591211438179,0.027711201459169388,0.03812496364116669,-0.012101109139621258,0.010842040181159973,0.04037083685398102,0.05822338908910751,0.03729712963104248,-0.051081832498311996,-0.02118709869682789,0.02829980105161667,-0.04565146565437317,-0.001972237369045615,0.017490778118371964,-0.009238793514668941,-0.00936630368232727,-0.01473036129027605,-0.0008165329345501959,0.04879766330122948,-0.0809631273150444,0.03365661948919296,0.007057250943034887,0.03273732587695122,-0.07785589247941971,0.05844710022211075,0.05267035588622093,0.017293380573391914,-0.01018556859344244,0.022311754524707794,-0.029383163899183273,0.014422576874494553,-0.01017664559185505,-0.07764144986867905,0.016769466921687126,0.06021180748939514,0.008414557203650475,0.02278898097574711,0.027127081528306007,-0.007226037792861462,0.05178922414779663,-0.017507430166006088,-0.027545247226953506,-0.01877863146364689,-0.0634772926568985,0.060972072184085846,0.05173732712864876,-0.043540485203266144,0.00370568479411304,0.039938755333423615,-0.0024578976444900036,0.056440532207489014,-0.08154831826686859,-0.04464135691523552,0.05978439003229141,0.007988497614860535,-0.05797489732503891,-0.03982219845056534,0.06169404461979866,-0.05222839117050171,0.012299631722271442,0.049398232251405716,0.0591997466981411,-0.043403640389442444,0.034451164305210114,0.021713824942708015,0.030306579545140266,-0.007006268482655287,0.011707338504493237,-0.02189522050321102,0.005125253461301327,-0.021912962198257446,-0.03369380533695221,0.01626904122531414,-0.04995345696806908,-0.01277341227978468,0.009607370011508465,0.01573323644697666,0.041934866458177567,-0.06578280031681061,-0.04140699654817581,-0.03939226642251015,0.04600156471133232,0.05970075726509094,0.02127414382994175,-0.07968060672283173,-0.023233499377965927,-0.0038212668150663376,0.011538360267877579,-0.005469215102493763,0.051369134336709976,0.05196794867515564,-0.03699244558811188,-0.005126076750457287,0.07567717880010605,0.007002962287515402,-0.010521954856812954,-0.006269632838666439,0.045033931732177734,-0.009736496955156326,-0.04663198068737984,-0.04123683646321297,0.002510163700208068,-0.01302518229931593,-0.013863789848983288,-0.016738081350922585,0.018762962892651558,-0.018504895269870758,-0.009641225449740887,0.0008075693040154874,0.05481579899787903,-0.006374444346874952,-0.03659187629818916,0.003224929329007864,-0.011028078384697437,-0.056203342974185944,0.046421393752098083,-0.013906300999224186,0.02844288758933544,-0.025582019239664078,0.09976179897785187,0.01215121615678072,-0.014127889648079872,-0.018706433475017548,-0.020623231306672096,0.06405963748693466,-0.004053994547575712,-0.0205776859074831,-0.04605080932378769,-0.031550273299217224,-0.0057734958827495575,-0.05581093207001686,0.0067681968212127686,0.03269394487142563,-0.01550719328224659,0.01872200332581997,0.0018589709652587771,-0.013159154914319515,-0.014166594482958317,-0.058395981788635254,-0.007839147932827473,-0.045177895575761795,-0.005301639903336763,-0.004272392950952053,-0.023351352661848068,-0.009046556428074837,0.02129131741821766,0.01369666401296854,-0.008979217149317265,0.033320844173431396,-0.035153668373823166,-0.0675598531961441,0.01144554652273655,-0.046298086643218994,-0.01720615103840828,-0.014727316796779633,-0.04229855537414551,-0.018332945182919502,0.0030533154495060444,-0.004360540304332972,-0.04062275588512421,-0.0009165915544144809,0.0740913525223732,-0.034664884209632874,-0.0071159652434289455,-0.08653933554887772,-0.044737715274095535,-0.07130694389343262,-0.023944906890392303,-0.057796381413936615,-0.004675162490457296,-0.005180628038942814,0.02151663787662983,-0.04333413019776344,-0.07319007813930511,-0.010933948680758476,-0.053386952728033066,0.026631657034158707,-0.028296489268541336,-0.008650965988636017,-0.010437965393066406,-0.014353284612298012,-0.040705420076847076,-0.011064033955335617,-0.037230487912893295,0.013739943504333496,0.0232277549803257,-0.07078079879283905,-0.050565946847200394,-0.03924482315778732,0.013950653374195099,-0.01416414137929678,0.004344420041888952,0.03663920238614082,-0.008808951824903488,-0.09001874923706055,0.018208704888820648,0.013422932475805283,0.0217412281781435,0.07519719749689102,0.0035522361285984516,0.019424989819526672,0.014356113038957119,0.04239731654524803,-0.0006669451831839979,0.00184015859849751,0.006935965269804001,0.02842843160033226,-0.03146152198314667,-0.01237235963344574,-0.016866348683834076,0.018502332270145416,0.02415250986814499,0.00929354690015316,-0.07869930565357208,-0.013639665208756924,-0.04055386409163475,-0.00438122870400548,-0.10675730556249619,-0.019037434831261635,-0.025308912619948387,-0.00862156692892313,0.05242503061890602,-0.002806470962241292,-0.032226793467998505,-0.02151685208082199,0.04843785613775253,-0.06939350068569183,0.0027589763049036264,0.04486112296581268,-0.009621617384254932,-0.00886165164411068,0.06350050866603851,-0.012224363163113594,-0.01550950389355421,-0.03140309453010559,-0.04637430980801582,0.04896653816103935,-0.013094974681735039,-0.039903923869132996,0.0705314353108406,0.048038896173238754,-0.039134714752435684,-0.006447814404964447,0.050523143261671066,0.05205438658595085,0.03717295080423355,-0.04776860028505325,-0.009317010641098022,-0.02755158580839634,-0.027196642011404037,-0.031908776611089706,0.06263593584299088,0.029380125924944878,0.022077182307839394,-0.03132891282439232,0.008359292522072792,-0.01690981164574623,0.037766166031360626,0.011521185748279095,0.027412375435233116,-0.012622963637113571,-0.023536745458841324,0.06611933559179306,0.024196084588766098,0.06686869263648987,-0.016799479722976685,0.01093656849116087,0.06689853966236115,0.04902498796582222,-0.0037711020559072495,-0.056144874542951584,0.0008671547984704375,0.00016093933663796633,0.02972085028886795,0.02315664477646351,0.014772733673453331,-0.03438938036561012,-0.023723043501377106,0.019349480047822,0.018316898494958878,-0.038560349494218826,-0.00900018960237503,-0.04465444013476372,0.010269279591739178,0.045092932879924774,-0.007103237323462963,0.008415582589805126,-0.04367353022098541,-0.00577292637899518,-0.00481978477910161,-0.017038602381944656,-0.042380668222904205,0.06178959459066391,-0.012131503783166409,0.010847295634448528,-0.028814855962991714,0.039116743952035904,-0.006193593610078096,0.03413326293230057,0.005548426415771246,-0.0059540169313549995,-0.02070845104753971,-0.04821084439754486,0.07070153206586838,0.029966771602630615,0.022041160613298416,-0.009628383442759514,0.0634421855211258,0.008456799201667309,0.011904687620699406,-0.011087040416896343,-0.022997761145234108,-0.02318606525659561,-0.023860998451709747,0.004235308151692152,-0.00018777587683871388,-0.007491938304156065,0.020074527710676193,0.001468456583097577,0.014306852594017982,0.05341599881649017,-0.021154312416911125,-0.026833582669496536,0.05466592684388161,0.011300529353320599,-0.06767867505550385,0.0008365450194105506,0.003494592849165201,-0.0007004772196523845,-0.03416740894317627,0.010398363694548607,0.01934502273797989,0.012384219095110893,-0.03170456737279892,0.048938289284706116,0.017025906592607498,0.03609171882271767,0.024978121742606163,-0.0241231732070446,0.006707796361297369,0.009242486208677292,-0.010846943594515324,0.011179506778717041,0.09271801263093948,-0.01273878663778305,0.004951355513185263,-0.028643034398555756,0.021056262776255608,0.023413382470607758,-0.03676147013902664,-0.04369054734706879,-0.010002097114920616,0.00576814217492938,0.0055244918912649155,-0.06626945734024048,-0.051832057535648346,0.012582564726471901,0.015850987285375595,0.028406215831637383,0.04874550178647041,-0.03721190616488457,0.011521600186824799,0.02860511839389801,0.050260573625564575,0.00512393144890666,0.012797221541404724,-0.01661878079175949,-0.03493471443653107,0.03982957452535629,0.00201674597337842,0.030286749824881554,0.02699916623532772,-0.021201051771640778,0.08004383742809296,-0.00564848817884922,-0.00024669128470122814,-0.006916704587638378,0.013369843363761902,-0.032648615539073944,0.034697145223617554,-0.005480352323502302,-0.011208083480596542,-0.012769193388521671,-0.03783094882965088,-0.03195734694600105,0.07551354914903641,-0.024585310369729996,-0.04538694769144058,0.007512868847697973,0.02847759611904621,-0.02292279154062271,-0.010090037249028683,-0.02132311835885048,-0.06744956225156784,0.009576956741511822,-0.0016117540653795004,-0.020452383905649185,0.02439512312412262,0.012691841460764408,-0.013509901240468025,0.041358064860105515,0.06172052025794983,-0.009425019845366478,-0.01664559543132782,-0.04256881773471832,-0.026563769206404686,0.012627500109374523,-0.0014590010978281498,-0.03243866190314293,0.07925348728895187,0.031887322664260864,0.0832129567861557,-0.012173746712505817,-0.0024168589152395725,-0.01261755358427763,-0.08508914709091187,-0.00008685869397595525,-0.01690671779215336,0.00044222999713383615,-0.04329407960176468,0.013450565747916698,0.0026083162520080805,-0.07213063538074493,0.020247049629688263,0.021456699818372726,-0.0017106778686866164,-0.018909433856606483,0.0353400893509388,0.014499098062515259,0.03143566846847534,0.028091296553611755,0.0010524141835048795,0.06971366703510284,-0.012668558396399021,0.0025402780156582594,0.01605224423110485,0.04853712022304535,-0.015932215377688408,0.02214280515909195,-0.011948831379413605,0.024180546402931213,0.01349650975316763,-0.008544465526938438,0.061899248510599136,0.04960213229060173,0.03679857775568962,-0.030713120475411415,-0.01287080068141222,0.039494991302490234,0.025196801871061325,0.05759218707680702,-0.01231235172599554,-0.03726664185523987,0.01039319857954979,-0.004428917542099953,0.051818348467350006,-0.014786744490265846,0.015326510183513165,0.030708251520991325,-0.008375050500035286,-0.04297030717134476,0.02374275214970112,-0.03432132303714752,0.00026594335213303566,0.016599180176854134,-0.02564983256161213,-0.0007388190133497119,-0.035590752959251404,0.015821395441889763,-0.03222094476222992,0.009303493425250053,-0.02303670533001423,-0.04479819908738136,-0.002441286575049162,-0.03044777922332287,0.010990029200911522,-0.018654171377420425,-0.014374341815710068,-0.05057581141591072,0.012048312462866306,0.003610562300309539,0.008643930777907372,-0.019605431705713272,0.04147147387266159,0.029280375689268112,0.02837234176695347,0.02077595889568329,0.005326672922819853,-0.01858784444630146,0.02138429507613182,-0.04332347959280014,0.0014404335524886847,0.10160160064697266,0.004390162881463766,-0.06899979710578918,0.07182912528514862,0.01068831142038107,-0.02792106196284294,-0.032465673983097076,0.03413964807987213,0.01306952815502882,0.03824499621987343,-0.010971647687256336,0.026489457115530968,0.043284714221954346,-0.018687384203076363,-0.04667991027235985,-0.023328660055994987,-0.04849507659673691,-0.019468344748020172,-0.0002864945272449404,0.052930526435375214,0.00778323644772172,-0.03138440474867821,-0.061650779098272324,-0.07826929539442062,0.009593112394213676,-0.07351378351449966,-0.017610521987080574,0.04795103147625923,0.04708249494433403,-0.028223710134625435,0.014780496247112751,0.012670344673097134,0.0006711219903081656,-0.030114511027932167,-0.0017313165590167046,-0.04490422084927559,0.006161152385175228,0.04166009649634361,-0.01611524447798729,-0.014184419997036457,0.007002660539001226,0.012778480537235737,-0.03789695352315903,0.014169223606586456,-0.03510585427284241,0.02566613256931305,0.010717066936194897,0.034623824059963226,-0.03782207518815994,0.018535073846578598,0.02191239222884178,0.037738800048828125,0.021417444571852684,-0.03920254111289978,0.03260885551571846,0.01783345453441143,0.01101976353675127,-0.0014098137617111206,-0.015570348128676414,-0.05305355787277222,-0.004255006555467844,0.008080828003585339,0.041043974459171295,0.0009709253208711743,-0.00040934805292636156,-0.029961606487631798,-0.058459486812353134,0.022788146510720253,-0.05188616365194321,0.0050638834945857525,-0.036123622208833694,-0.06501924991607666,0.016389384865760803,-0.02524475008249283,0.008069925010204315,-0.0683111846446991,0.0022233473137021065,0.01789696514606476,-0.036159563809633255,-0.039863184094429016,-0.05647146701812744,-0.02582261711359024,0.031286586076021194,0.003876187838613987,-0.011476232670247555,0.05138994753360748,0.0033333294559270144,-0.03506821393966675,-0.010810105130076408,0.020713157951831818,-0.04277481138706207,0.03862092271447182,0.031768884509801865,0.023696281015872955,0.01472273375838995,-0.016568757593631744,-0.004129547160118818,0.05710715800523758,-0.003308162558823824,-0.026504183188080788,-0.0629788264632225,-0.05910167470574379,0.02593749389052391,0.006300959270447493,0.03236676752567291,-0.01129232533276081,0.051191266626119614,-0.024023130536079407,-0.022069888189435005,-0.005550913512706757,0.03204505145549774,0.031634025275707245,0.034392111003398895,0.015715042129158974,-0.005721449386328459,0.04865531250834465,0.056153371930122375,-0.039842721074819565,0.10044101625680923,-0.05759958177804947,0.015539257787168026,0.09720983356237411,-0.022575518116354942,0.03355526179075241,-0.00946806836873293,0.03826906159520149,-0.024816259741783142,0.021397123113274574,-0.007479165215045214,-0.010143138468265533,-0.017706919461488724,0.012294224463403225,0.057061150670051575,-0.03446153178811073,0.010604971088469028,0.00016859178140293807,0.03165186569094658,-0.02763097919523716,0.024624323472380638,0.0461687296628952,0.04045918583869934,-0.0041348859667778015,0.029652660712599754,-0.034979380667209625,0.003871634602546692,-0.010245105251669884,-0.010661515407264233,0.004362682346254587,0.01594744808971882,-0.008168702945113182,-0.05270175263285637,-0.027979141101241112,-0.02400931343436241,0.018082238733768463,0.03412814438343048,-0.02456137351691723,0.010680473409593105,-0.04281538724899292,-0.04244165122509003,-0.03903567045927048,-0.01511145569384098,-0.04172362759709358,0.038077473640441895,-0.03114020824432373,0.008754936046898365,0.008678044192492962,-0.006584629416465759,-0.011579680256545544,0.06915479898452759,0.01055251806974411,0.08483617752790451,0.022208724170923233,0.04037386178970337,-0.051957517862319946,-0.07946816086769104,0.046832866966724396,-0.021907664835453033]]}}},"searchableProperties":["id","title","path","content","embedding","embeddingModel","created_at","ctime","mtime","tags","extension"],"searchablePropertiesWithTypes":{"id":"string","title":"string","path":"string","content":"string","embedding":"vector[768]","embeddingModel":"string","created_at":"number","ctime":"number","mtime":"number","tags":"string[]","extension":"string"},"frequencies":{"id":{"1":{"51fdbc43ccea465f906e8343daf337ea":1}},"title":{"1":{"bias":1}},"path":{"1":{"bias":0.5,"md":0.5}},"content":{"1":{"12":0.02040816326530612,"23":0.02040816326530612,"26":0.02040816326530612,"39":0.02040816326530612,"53":0.02040816326530612,"2025":0.02040816326530612,"note":0.02040816326530612,"title":0.02040816326530612,"bias":0.02040816326530612,"metadata":0.02040816326530612,"created":0.02040816326530612,"06":0.02040816326530612,"07":0.02040816326530612,"modified":0.02040816326530612,"08":0.02040816326530612,"02":0.02040816326530612,"block":0.02040816326530612,"content":0.02040816326530612,"when":0.02040816326530612,"you":0.02040816326530612,"have":0.02040816326530612,"a":0.02040816326530612,"the":0.02040816326530612,"things":0.02040816326530612,"see":0.02040816326530612,"in":0.02040816326530612,"world":0.02040816326530612,"are":0.02040816326530612,"wrong":0.02040816326530612,"even":0.02040816326530612,"can":0.02040816326530612,"do":0.02040816326530612,"many":0.02040816326530612,"experiments":0.02040816326530612,"to":0.02040816326530612,"say":0.02040816326530612,"that":0.02040816326530612,"your":0.02040816326530612,"ideas":0.02040816326530612,"right":0.02040816326530612,"because":0.02040816326530612,"get":0.02040816326530612,"those":0.02040816326530612,"results":0.02040816326530612,"times":0.02040816326530612,"but":0.02040816326530612,"model":0.02040816326530612,"is":0.02040816326530612,"biased":0.02040816326530612}},"embeddingModel":{"1":{"text-embedding-004":1}},"tags":{},"extension":{"1":{"md":1}}},"tokenOccurrences":{"id":{"51fdbc43ccea465f906e8343daf337ea":1},"title":{"bias":1},"path":{"bias":1,"md":1},"content":{"12":1,"23":1,"26":1,"39":1,"53":1,"2025":1,"note":1,"title":1,"bias":1,"metadata":1,"created":1,"06":1,"07":1,"modified":1,"08":1,"02":1,"block":1,"content":1,"when":1,"you":1,"have":1,"a":1,"the":1,"things":1,"see":1,"in":1,"world":1,"are":1,"wrong":1,"even":1,"can":1,"do":1,"many":1,"experiments":1,"to":1,"say":1,"that":1,"your":1,"ideas":1,"right":1,"because":1,"get":1,"those":1,"results":1,"times":1,"but":1,"model":1,"is":1,"biased":1},"embeddingModel":{"text-embedding-004":1},"tags":{},"extension":{"md":1}},"avgFieldLength":{"id":1,"title":1,"path":2,"content":49,"embeddingModel":1,"tags":0,"extension":1},"fieldLengths":{"id":{"1":1},"title":{"1":1},"path":{"1":2},"content":{"1":49},"embeddingModel":{"1":1},"tags":{},"extension":{"1":1}}},"docs":{"docs":{"1":{"title":"Bias","path":"Bias.md","embeddingModel":"text-embedding-004","ctime":1749309999714,"mtime":1749358382887,"tags":[],"extension":"md","metadata":{"created":"2025/06/07 23:26:39","modified":"2025/06/08 12:53:02"},"id":"51fdbc43ccea465f906e8343daf337ea","content":"\n\nNOTE TITLE: [[Bias]]\n\nMETADATA:{\"created\":\"2025/06/07 23:26:39\",\"modified\":\"2025/06/08 12:53:02\"}\n\nNOTE BLOCK CONTENT:\n\nWhen you have a bias, the things you see in the world are wrong. Even you can do many experiments to say that your ideas are right because you get those results many times, but your model is biased.","embedding":[0.051312733,0.021018244,-0.06990114,0.008601657,-0.077539414,0.043451272,0.031154549,0.04376766,-0.067453645,-0.03308808,-0.014819452,0.049535166,0.05543361,-0.060773827,0.021502733,-0.047773387,0.047315013,0.058810268,-0.05041329,-0.0435835,0.0233625,0.03179922,-0.040533666,0.004465535,-0.044987347,-0.01904135,0.045973025,-0.033565253,0.02617107,0.03546923,0.028279627,-0.000039940154,0.03365768,0.0036985094,0.031093046,0.010842511,-0.028519709,-0.014889846,-0.0057224524,-0.013854942,-0.103971854,0.018431816,-0.031152893,0.010858094,-0.045136373,0.0028175658,-0.005496085,-0.01875547,-0.01659585,0.038336758,0.0035265177,0.021999262,-0.019627027,0.013427977,-0.019782646,-0.0671593,-0.034786776,-0.040315423,0.04721553,-0.009661043,-0.034850545,-0.035785437,-0.051983625,-0.015001769,0.0083544785,-0.004271462,-0.045611806,-0.036010254,-0.050711766,0.08018511,-0.040392715,-0.017831843,-0.073542334,-0.007036727,0.013524935,-0.032755535,0.012987111,-0.036843117,-0.0009436836,0.057411224,-0.003271102,-0.018243343,0.09650672,0.02597217,0.053587426,0.0026090818,0.0029251885,-0.022482276,-0.09152345,-0.031577628,-0.02320864,0.0193,-0.0693195,-0.03729349,0.08305539,-0.027084189,-0.026154254,-0.07749362,0.09282636,0.04235912,0.027711201,0.038124964,-0.012101109,0.01084204,0.040370837,0.05822339,0.03729713,-0.051081832,-0.021187099,0.028299801,-0.045651466,-0.0019722374,0.017490778,-0.0092387935,-0.009366304,-0.014730361,-0.00081653293,0.048797663,-0.08096313,0.03365662,0.007057251,0.032737326,-0.07785589,0.0584471,0.052670356,0.01729338,-0.010185569,0.022311755,-0.029383164,0.014422577,-0.010176646,-0.07764145,0.016769467,0.060211807,0.008414557,0.022788981,0.027127082,-0.007226038,0.051789224,-0.01750743,-0.027545247,-0.018778631,-0.06347729,0.060972072,0.051737327,-0.043540485,0.0037056848,0.039938755,-0.0024578976,0.056440532,-0.08154832,-0.044641357,0.05978439,0.007988498,-0.057974897,-0.0398222,0.061694045,-0.05222839,0.012299632,0.049398232,0.059199747,-0.04340364,0.034451164,0.021713825,0.03030658,-0.0070062685,0.0117073385,-0.02189522,0.0051252535,-0.021912962,-0.033693805,0.016269041,-0.049953457,-0.012773412,0.00960737,0.015733236,0.041934866,-0.0657828,-0.041406997,-0.039392266,0.046001565,0.059700757,0.021274144,-0.07968061,-0.0232335,-0.0038212668,0.01153836,-0.005469215,0.051369134,0.05196795,-0.036992446,-0.0051260768,0.07567718,0.0070029623,-0.010521955,-0.006269633,0.04503393,-0.009736497,-0.04663198,-0.041236836,0.0025101637,-0.013025182,-0.01386379,-0.016738081,0.018762963,-0.018504895,-0.009641225,0.0008075693,0.0548158,-0.0063744443,-0.036591876,0.0032249293,-0.011028078,-0.056203343,0.046421394,-0.013906301,0.028442888,-0.02558202,0.0997618,0.012151216,-0.01412789,-0.018706433,-0.020623231,0.06405964,-0.0040539945,-0.020577686,-0.04605081,-0.031550273,-0.005773496,-0.055810932,0.006768197,0.032693945,-0.015507193,0.018722003,0.001858971,-0.013159155,-0.0141665945,-0.05839598,-0.007839148,-0.045177896,-0.00530164,-0.004272393,-0.023351353,-0.009046556,0.021291317,0.013696664,-0.008979217,0.033320844,-0.03515367,-0.06755985,0.0114455465,-0.046298087,-0.017206151,-0.014727317,-0.042298555,-0.018332945,0.0030533154,-0.0043605403,-0.040622756,-0.00091659155,0.07409135,-0.034664884,-0.0071159652,-0.086539336,-0.044737715,-0.071306944,-0.023944907,-0.05779638,-0.0046751625,-0.005180628,0.021516638,-0.04333413,-0.07319008,-0.010933949,-0.053386953,0.026631657,-0.02829649,-0.008650966,-0.010437965,-0.014353285,-0.04070542,-0.011064034,-0.037230488,0.0137399435,0.023227755,-0.0707808,-0.050565947,-0.039244823,0.013950653,-0.014164141,0.00434442,0.036639202,-0.008808952,-0.09001875,0.018208705,0.0134229325,0.021741228,0.0751972,0.0035522361,0.01942499,0.014356113,0.042397317,-0.0006669452,0.0018401586,0.0069359653,0.028428432,-0.031461522,-0.01237236,-0.016866349,0.018502332,0.02415251,0.009293547,-0.078699306,-0.013639665,-0.040553864,-0.0043812287,-0.106757306,-0.019037435,-0.025308913,-0.008621567,0.05242503,-0.002806471,-0.032226793,-0.021516852,0.048437856,-0.0693935,0.0027589763,0.044861123,-0.009621617,-0.008861652,0.06350051,-0.012224363,-0.015509504,-0.031403095,-0.04637431,0.04896654,-0.013094975,-0.039903924,0.070531435,0.048038896,-0.039134715,-0.0064478144,0.050523143,0.052054387,0.03717295,-0.0477686,-0.009317011,-0.027551586,-0.027196642,-0.031908777,0.062635936,0.029380126,0.022077182,-0.031328913,0.0083592925,-0.016909812,0.037766166,0.011521186,0.027412375,-0.012622964,-0.023536745,0.066119336,0.024196085,0.06686869,-0.01679948,0.0109365685,0.06689854,0.049024988,-0.003771102,-0.056144875,0.0008671548,0.00016093934,0.02972085,0.023156645,0.014772734,-0.03438938,-0.023723044,0.01934948,0.018316898,-0.03856035,-0.00900019,-0.04465444,0.01026928,0.045092933,-0.0071032373,0.008415583,-0.04367353,-0.0057729264,-0.004819785,-0.017038602,-0.04238067,0.061789595,-0.012131504,0.010847296,-0.028814856,0.039116744,-0.0061935936,0.034133263,0.0055484264,-0.005954017,-0.020708451,-0.048210844,0.07070153,0.029966772,0.02204116,-0.009628383,0.063442186,0.008456799,0.011904688,-0.01108704,-0.022997761,-0.023186065,-0.023860998,0.004235308,-0.00018777588,-0.0074919383,0.020074528,0.0014684566,0.014306853,0.053416,-0.021154312,-0.026833583,0.054665927,0.011300529,-0.067678675,0.000836545,0.0034945928,-0.0007004772,-0.03416741,0.010398364,0.019345023,0.012384219,-0.031704567,0.04893829,0.017025907,0.03609172,0.024978122,-0.024123173,0.0067077964,0.009242486,-0.010846944,0.011179507,0.09271801,-0.012738787,0.0049513555,-0.028643034,0.021056263,0.023413382,-0.03676147,-0.043690547,-0.010002097,0.005768142,0.005524492,-0.06626946,-0.051832058,0.012582565,0.015850987,0.028406216,0.0487455,-0.037211906,0.0115216,0.028605118,0.050260574,0.0051239314,0.012797222,-0.01661878,-0.034934714,0.039829575,0.002016746,0.03028675,0.026999166,-0.021201052,0.08004384,-0.005648488,-0.00024669128,-0.0069167046,0.013369843,-0.032648616,0.034697145,-0.0054803523,-0.0112080835,-0.012769193,-0.03783095,-0.031957347,0.07551355,-0.02458531,-0.045386948,0.007512869,0.028477596,-0.022922792,-0.010090037,-0.021323118,-0.06744956,0.009576957,-0.0016117541,-0.020452384,0.024395123,0.012691841,-0.013509901,0.041358065,0.06172052,-0.00942502,-0.016645595,-0.042568818,-0.02656377,0.0126275,-0.0014590011,-0.032438662,0.07925349,0.031887323,0.08321296,-0.012173747,-0.002416859,-0.012617554,-0.08508915,-0.000086858694,-0.016906718,0.00044223,-0.04329408,0.013450566,0.0026083163,-0.072130635,0.02024705,0.0214567,-0.0017106779,-0.018909434,0.03534009,0.014499098,0.03143567,0.028091297,0.0010524142,0.06971367,-0.012668558,0.002540278,0.016052244,0.04853712,-0.015932215,0.022142805,-0.011948831,0.024180546,0.01349651,-0.0085444655,0.06189925,0.049602132,0.036798578,-0.03071312,-0.012870801,0.03949499,0.025196802,0.057592187,-0.012312352,-0.03726664,0.010393199,-0.0044289175,0.05181835,-0.0147867445,0.01532651,0.030708252,-0.0083750505,-0.042970307,0.023742752,-0.034321323,0.00026594335,0.01659918,-0.025649833,-0.000738819,-0.035590753,0.015821395,-0.032220945,0.009303493,-0.023036705,-0.0447982,-0.0024412866,-0.03044778,0.010990029,-0.018654171,-0.014374342,-0.05057581,0.012048312,0.0036105623,0.008643931,-0.019605432,0.041471474,0.029280376,0.028372342,0.020775959,0.005326673,-0.018587844,0.021384295,-0.04332348,0.0014404336,0.1016016,0.004390163,-0.0689998,0.071829125,0.010688311,-0.027921062,-0.032465674,0.034139648,0.013069528,0.038244996,-0.010971648,0.026489457,0.043284714,-0.018687384,-0.04667991,-0.02332866,-0.048495077,-0.019468345,-0.00028649453,0.052930526,0.0077832364,-0.031384405,-0.06165078,-0.078269295,0.009593112,-0.07351378,-0.017610522,0.04795103,0.047082495,-0.02822371,0.014780496,0.012670345,0.000671122,-0.030114511,-0.0017313166,-0.04490422,0.0061611524,0.041660096,-0.016115244,-0.01418442,0.0070026605,0.012778481,-0.037896954,0.014169224,-0.035105854,0.025666133,0.010717067,0.034623824,-0.037822075,0.018535074,0.021912392,0.0377388,0.021417445,-0.03920254,0.032608856,0.017833455,0.011019764,-0.0014098138,-0.015570348,-0.053053558,-0.0042550066,0.008080828,0.041043974,0.0009709253,-0.00040934805,-0.029961606,-0.058459487,0.022788147,-0.051886164,0.0050638835,-0.036123622,-0.06501925,0.016389385,-0.02524475,0.008069925,-0.068311185,0.0022233473,0.017896965,-0.036159564,-0.039863184,-0.056471467,-0.025822617,0.031286586,0.0038761878,-0.011476233,0.051389948,0.0033333295,-0.035068214,-0.010810105,0.020713158,-0.04277481,0.038620923,0.031768885,0.023696281,0.014722734,-0.016568758,-0.004129547,0.057107158,-0.0033081626,-0.026504183,-0.06297883,-0.059101675,0.025937494,0.0063009593,0.032366768,-0.011292325,0.051191267,-0.02402313,-0.022069888,-0.0055509135,0.03204505,0.031634025,0.03439211,0.015715042,-0.0057214494,0.048655313,0.056153372,-0.03984272,0.100441016,-0.05759958,0.015539258,0.09720983,-0.022575518,0.03355526,-0.009468068,0.03826906,-0.02481626,0.021397123,-0.007479165,-0.0101431385,-0.01770692,0.012294224,0.05706115,-0.03446153,0.010604971,0.00016859178,0.031651866,-0.02763098,0.024624323,0.04616873,0.040459186,-0.004134886,0.02965266,-0.03497938,0.0038716346,-0.010245105,-0.010661515,0.0043626823,0.015947448,-0.008168703,-0.052701753,-0.027979141,-0.024009313,0.018082239,0.034128144,-0.024561374,0.010680473,-0.042815387,-0.04244165,-0.03903567,-0.015111456,-0.041723628,0.038077474,-0.031140208,0.008754936,0.008678044,-0.0065846294,-0.01157968,0.0691548,0.010552518,0.08483618,0.022208724,0.04037386,-0.051957518,-0.07946816,0.046832867,-0.021907665],"created_at":1749367916552,"nchars":320}},"count":1},"sorting":{"language":"english","sortableProperties":["id","title","path","content","embeddingModel","created_at","ctime","mtime","extension"],"sortablePropertiesWithTypes":{"id":"string","title":"string","path":"string","content":"string","embeddingModel":"string","created_at":"number","ctime":"number","mtime":"number","extension":"string"},"sorts":{"id":{"docs":{"1":0},"orderedDocs":[[1,"51fdbc43ccea465f906e8343daf337ea"]],"type":"string"},"title":{"docs":{"1":0},"orderedDocs":[[1,"Bias"]],"type":"string"},"path":{"docs":{"1":0},"orderedDocs":[[1,"Bias.md"]],"type":"string"},"content":{"docs":{"1":0},"orderedDocs":[[1,"\n\nNOTE TITLE: [[Bias]]\n\nMETADATA:{\"created\":\"2025/06/07 23:26:39\",\"modified\":\"2025/06/08 12:53:02\"}\n\nNOTE BLOCK CONTENT:\n\nWhen you have a bias, the things you see in the world are wrong. Even you can do many experiments to say that your ideas are right because you get those results many times, but your model is biased."]],"type":"string"},"embeddingModel":{"docs":{"1":0},"orderedDocs":[[1,"text-embedding-004"]],"type":"string"},"created_at":{"docs":{"1":0},"orderedDocs":[[1,1749367916552]],"type":"number"},"ctime":{"docs":{"1":0},"orderedDocs":[[1,1749309999714]],"type":"number"},"mtime":{"docs":{"1":0},"orderedDocs":[[1,1749358382887]],"type":"number"},"extension":{"docs":{"1":0},"orderedDocs":[[1,"md"]],"type":"string"}},"enabled":true,"isSorted":true},"language":"english","schema":{"id":"string","title":"string","path":"string","content":"string","embedding":"vector[768]","embeddingModel":"string","created_at":"number","ctime":"number","mtime":"number","tags":"string[]","extension":"string"}}